{"learner":{"attributes":{"scikit_learn":"{\"_estimator_type\": \"regressor\"}"},"feature_names":[],"feature_types":[],"gradient_booster":{"model":{"gbtree_model_param":{"num_parallel_tree":"1","num_trees":"150"},"iteration_indptr":[0,1,2,3,4,5,6,7,8,9,10,11,12,13,14,15,16,17,18,19,20,21,22,23,24,25,26,27,28,29,30,31,32,33,34,35,36,37,38,39,40,41,42,43,44,45,46,47,48,49,50,51,52,53,54,55,56,57,58,59,60,61,62,63,64,65,66,67,68,69,70,71,72,73,74,75,76,77,78,79,80,81,82,83,84,85,86,87,88,89,90,91,92,93,94,95,96,97,98,99,100,101,102,103,104,105,106,107,108,109,110,111,112,113,114,115,116,117,118,119,120,121,122,123,124,125,126,127,128,129,130,131,132,133,134,135,136,137,138,139,140,141,142,143,144,145,146,147,148,149,150],"tree_info":[0,0,0,0,0,0,0,0,0,0,0,0,0,0,0,0,0,0,0,0,0,0,0,0,0,0,0,0,0,0,0,0,0,0,0,0,0,0,0,0,0,0,0,0,0,0,0,0,0,0,0,0,0,0,0,0,0,0,0,0,0,0,0,0,0,0,0,0,0,0,0,0,0,0,0,0,0,0,0,0,0,0,0,0,0,0,0,0,0,0,0,0,0,0,0,0,0,0,0,0,0,0,0,0,0,0,0,0,0,0,0,0,0,0,0,0,0,0,0,0,0,0,0,0,0,0,0,0,0,0,0,0,0,0,0,0,0,0,0,0,0,0,0,0,0,0,0,0,0,0],"trees":[{"base_weights":[-3.243734E-6,-8.090362E0,9.214017E0,-1.2024501E1,-7.621721E-1,5.2815475E0,1.788053E1,-1.769882E1,-7.7462397E0,-7.797168E0,1.7388597E0,2.2043223E0,1.0871859E1,1.4520856E1,2.261998E0,-2.1644287E0,-1.4741049E0,-9.614987E-1,-3.290558E-1,-1.0720208E0,4.1552518E-2,-7.273401E-2,5.466134E-1,6.7871965E-2,8.511896E-1,6.3263804E-1,1.365713E0,1.058958E0,1.8722422E0],"categories":[],"categories_nodes":[],"categories_segments":[],"categories_sizes":[],"default_left":[0,0,0,0,0,0,0,0,0,0,0,0,0,0,0,0,0,0,0,0,0,0,0,0,0,0,0,0,0],"id":0,"left_children":[1,3,5,7,9,11,13,15,17,19,21,23,25,27,-1,-1,-1,-1,-1,-1,-1,-1,-1,-1,-1,-1,-1,-1,-1],"loss_changes":[3.4439664E4,7.083043E3,7.2670137E3,3.7470957E3,1.5443013E3,2.5564321E3,7.383789E2,4.7448633E2,7.427295E2,5.5659314E2,6.0146893E2,9.372623E2,5.846001E2,4.9547363E2,0E0,0E0,0E0,0E0,0E0,0E0,0E0,0E0,0E0,0E0,0E0,0E0,0E0,0E0,0E0],"parents":[2147483647,0,0,1,1,2,2,3,3,4,4,5,5,6,6,7,7,8,8,9,9,10,10,11,11,12,12,13,13],"right_children":[2,4,6,8,10,12,14,16,18,20,22,24,26,28,-1,-1,-1,-1,-1,-1,-1,-1,-1,-1,-1,-1,-1,-1,-1],"split_conditions":[1.05521955E-1,5.476292E-1,1.2521385E0,-6.5888906E-1,-1.0410945E0,2.3234831E-1,7.4707866E-2,-1.2321973E0,-8.2932584E-2,1.9663932E0,1.1760769E-1,1.2667685E0,-2.823148E-1,7.504074E-1,2.261998E0,-2.1644287E0,-1.4741049E0,-9.614987E-1,-3.290558E-1,-1.0720208E0,4.1552518E-2,-7.273401E-2,5.466134E-1,6.7871965E-2,8.511896E-1,6.3263804E-1,1.365713E0,1.058958E0,1.8722422E0],"split_indices":[4,10,4,4,4,10,10,4,10,10,9,7,7,7,0,0,0,0,0,0,0,0,0,0,0,0,0,0,0],"split_type":[0,0,0,0,0,0,0,0,0,0,0,0,0,0,0,0,0,0,0,0,0,0,0,0,0,0,0,0,0],"sum_hessian":[4.6E2,2.45E2,2.15E2,1.59E2,8.6E1,1.49E2,6.6E1,6.7E1,9.2E1,2.2E1,6.4E1,9.7E1,5.2E1,4.1E1,2.5E1,2.6E1,4.1E1,6.4E1,2.8E1,1.6E1,6E0,3.9E1,2.5E1,7.9E1,1.8E1,2.1E1,3.1E1,2.3E1,1.8E1],"tree_param":{"num_deleted":"0","num_feature":"27","num_nodes":"29","size_leaf_vector":"1"}},{"base_weights":[5.691032E-3,-7.3036246E0,8.330163E0,-1.210375E1,-2.3255982E0,4.7728424E0,1.6169983E1,-1.8319925E1,-9.071764E0,-8.987703E0,-5.5480458E-2,1.9932692E0,9.822377E0,1.3138558E1,2.0444979E1,-1.9776524E0,-1.1105365E0,-1.0907733E0,-5.462537E-1,-1.1251127E0,3.7991118E-2,-2.3858058E-1,4.6069604E-1,-7.064938E-2,4.937831E-1,5.7224995E-1,1.2334093E0,8.457718E-1,1.5983222E0,1.3694931E0,2.2211053E0],"categories":[],"categories_nodes":[],"categories_segments":[],"categories_sizes":[],"default_left":[0,0,0,0,0,0,0,0,0,0,0,0,0,0,0,0,0,0,0,0,0,0,0,0,0,0,0,0,0,0,0],"id":1,"left_children":[1,3,5,7,9,11,13,15,17,19,21,23,25,27,29,-1,-1,-1,-1,-1,-1,-1,-1,-1,-1,-1,-1,-1,-1,-1,-1],"loss_changes":[2.8110936E4,5.8500586E3,5.946795E3,2.1897266E3,1.8446003E3,2.0857546E3,5.996582E2,2.0072266E2,5.1028955E2,6.615637E2,1.0105717E3,7.825513E2,4.7519775E2,4.2406543E2,5.7695312E0,0E0,0E0,0E0,0E0,0E0,0E0,0E0,0E0,0E0,0E0,0E0,0E0,0E0,0E0,0E0,0E0],"parents":[2147483647,0,0,1,1,2,2,3,3,4,4,5,5,6,6,7,7,8,8,9,9,10,10,11,11,12,12,13,13,14,14],"right_children":[2,4,6,8,10,12,14,16,18,20,22,24,26,28,30,-1,-1,-1,-1,-1,-1,-1,-1,-1,-1,-1,-1,-1,-1,-1,-1],"split_conditions":[1.05521955E-1,7.4707866E-2,1.2521385E0,-8.499918E-1,-1.0410945E0,2.3234831E-1,7.4707866E-2,7.504074E-1,2.3404628E-1,1.9663932E0,1.3358314E0,2.3404628E-1,-2.823148E-1,4.9222684E-1,6.2400943E-1,-1.9776524E0,-1.1105365E0,-1.0907733E0,-5.462537E-1,-1.1251127E0,3.7991118E-2,-2.3858058E-1,4.6069604E-1,-7.064938E-2,4.937831E-1,5.7224995E-1,1.2334093E0,8.457718E-1,1.5983222E0,1.3694931E0,2.2211053E0],"split_indices":[4,10,4,4,4,10,10,7,7,10,10,7,7,7,16,0,0,0,0,0,0,0,0,0,0,0,0,0,0,0,0],"split_type":[0,0,0,0,0,0,0,0,0,0,0,0,0,0,0,0,0,0,0,0,0,0,0,0,0,0,0,0,0,0,0],"sum_hessian":[4.6E2,2.45E2,2.15E2,1.24E2,1.21E2,1.49E2,6.6E1,3.9E1,8.5E1,3E1,9.1E1,9.7E1,5.2E1,4.1E1,2.5E1,3.1E1,8E0,5.5E1,3E1,2.4E1,6E0,6.1E1,3E1,5.1E1,4.6E1,2.1E1,3.1E1,1.7E1,2.4E1,7E0,1.8E1],"tree_param":{"num_deleted":"0","num_feature":"27","num_nodes":"31","size_leaf_vector":"1"}},{"base_weights":[1.0921387E-2,-5.863158E0,8.4956455E0,-9.305516E0,2.8104278E-1,5.0779853E0,1.4643056E1,-1.3338013E1,-4.7781935E0,-4.23855E0,3.4170134E0,3.462795E0,1.1949995E1,1.1333867E1,1.8120375E1,-1.7546904E0,-1.1018437E0,-8.0729735E-1,-2.595387E-1,-8.028719E-1,-9.232566E-2,2.4021624E-2,6.27863E-1,1.156122E-1,6.1956406E-1,4.1865945E-1,1.2490004E0,8.816347E-1,1.5844007E0,1.0482217E0,1.9911413E0],"categories":[],"categories_nodes":[],"categories_segments":[],"categories_sizes":[],"default_left":[0,0,0,0,0,0,0,0,0,0,0,0,0,0,0,0,0,0,0,0,0,0,0,0,0,0,0,0,0,0,0],"id":2,"left_children":[1,3,5,7,9,11,13,15,17,19,21,23,25,27,29,-1,-1,-1,-1,-1,-1,-1,-1,-1,-1,-1,-1,-1,-1,-1,-1],"loss_changes":[2.3026023E4,5.776714E3,3.8964873E3,3.1311396E3,1.4176409E3,1.3238711E3,5.6560156E2,7.048418E2,5.831644E2,5.0777374E2,5.348476E2,6.2951904E2,4.4132324E1,2.804253E2,2.153711E2,0E0,0E0,0E0,0E0,0E0,0E0,0E0,0E0,0E0,0E0,0E0,0E0,0E0,0E0,0E0,0E0],"parents":[2147483647,0,0,1,1,2,2,3,3,4,4,5,5,6,6,7,7,8,8,9,9,10,10,11,11,12,12,13,13,14,14],"right_children":[2,4,6,8,10,12,14,16,18,20,22,24,26,28,30,-1,-1,-1,-1,-1,-1,-1,-1,-1,-1,-1,-1,-1,-1,-1,-1],"split_conditions":[2.966247E-1,5.476292E-1,1.2521385E0,-4.677863E-1,-6.5888906E-1,7.0526963E-1,1.634344E0,-8.8829553E-1,-7.1349436E-1,1.178191E0,1.178191E0,2.3404628E-1,-7.986759E-1,2.3234831E-1,-1.176843E0,-1.7546904E0,-1.1018437E0,-8.0729735E-1,-2.595387E-1,-8.028719E-1,-9.232566E-2,2.4021624E-2,6.27863E-1,1.156122E-1,6.1956406E-1,4.1865945E-1,1.2490004E0,8.816347E-1,1.5844007E0,1.0482217E0,1.9911413E0],"split_indices":[4,10,4,4,4,10,4,9,10,10,10,7,7,10,11,0,0,0,0,0,0,0,0,0,0,0,0,0,0,0,0],"split_type":[0,0,0,0,0,0,0,0,0,0,0,0,0,0,0,0,0,0,0,0,0,0,0,0,0,0,0,0,0,0,0],"sum_hessian":[4.6E2,2.72E2,1.88E2,1.74E2,9.8E1,1.22E2,6.6E1,9.1E1,8.3E1,4E1,5.8E1,1E2,2.2E1,3.6E1,3E1,3E1,6.1E1,3.2E1,5.1E1,1.8E1,2.2E1,2.8E1,3E1,5.5E1,4.5E1,2E0,2E1,2.5E1,1.1E1,7E0,2.3E1],"tree_param":{"num_deleted":"0","num_feature":"27","num_nodes":"31","size_leaf_vector":"1"}},{"base_weights":[1.7944418E-2,-5.9753146E0,6.8435173E0,-9.940169E0,-1.8639851E0,3.931455E0,1.3260918E1,-1.4017047E1,-6.6420226E0,-4.8768406E0,1.7739668E0,1.5759917E0,8.212662E0,1.0267127E1,1.640638E1,-1.7491711E0,-1.1531762E0,-8.1425345E-1,-2.6816374E-1,-6.990642E-1,-5.2910578E-2,-6.5286523E-1,2.715962E-1,3.4004528E-2,6.69703E-1,4.7749183E-1,1.0319464E0,4.3508616E-1,1.1749171E0,9.7849846E-1,1.8284041E0],"categories":[],"categories_nodes":[],"categories_segments":[],"categories_sizes":[],"default_left":[0,0,0,0,0,0,0,0,0,0,0,0,0,0,0,0,0,0,0,0,0,0,0,0,0,0,0,0,0,0,0],"id":3,"left_children":[1,3,5,7,9,11,13,15,17,19,21,23,25,27,29,-1,-1,-1,-1,-1,-1,-1,-1,-1,-1,-1,-1,-1,-1,-1,-1],"loss_changes":[1.8899215E4,3.9914746E3,3.9844453E3,1.587666E3,1.3458473E3,1.4996907E3,4.6248242E2,2.7324316E2,4.0008936E2,6.12048E2,4.55709E2,6.17997E2,3.3458545E2,2.7330298E2,2.0650586E2,0E0,0E0,0E0,0E0,0E0,0E0,0E0,0E0,0E0,0E0,0E0,0E0,0E0,0E0,0E0,0E0],"parents":[2147483647,0,0,1,1,2,2,3,3,4,4,5,5,6,6,7,7,8,8,9,9,10,10,11,11,12,12,13,13,14,14],"right_children":[2,4,6,8,10,12,14,16,18,20,22,24,26,28,30,-1,-1,-1,-1,-1,-1,-1,-1,-1,-1,-1,-1,-1,-1,-1,-1],"split_conditions":[1.05521955E-1,7.4707866E-2,1.2521385E0,-6.5888906E-1,-2.4134269E-2,2.3234831E-1,1.634344E0,-1.2321973E0,4.9222684E-1,1.178191E0,-1.4233E0,1.2667685E0,-2.823148E-1,-3.9824012E-1,-4.159667E-3,-1.7491711E0,-1.1531762E0,-8.1425345E-1,-2.6816374E-1,-6.990642E-1,-5.2910578E-2,-6.5286523E-1,2.715962E-1,3.4004528E-2,6.69703E-1,4.7749183E-1,1.0319464E0,4.3508616E-1,1.1749171E0,9.7849846E-1,1.8284041E0],"split_indices":[4,10,4,4,7,10,4,4,7,10,4,7,7,9,2,0,0,0,0,0,0,0,0,0,0,0,0,0,0,0,0],"split_type":[0,0,0,0,0,0,0,0,0,0,0,0,0,0,0,0,0,0,0,0,0,0,0,0,0,0,0,0,0,0,0],"sum_hessian":[4.6E2,2.45E2,2.15E2,1.24E2,1.21E2,1.49E2,6.6E1,5.4E1,7E1,6.6E1,5.5E1,9.7E1,5.2E1,3.6E1,3E1,2E1,3.4E1,5E1,2E1,4.4E1,2.2E1,5E0,5E1,7.9E1,1.8E1,2.1E1,3.1E1,8E0,2.8E1,8E0,2.2E1],"tree_param":{"num_deleted":"0","num_feature":"27","num_nodes":"31","size_leaf_vector":"1"}},{"base_weights":[1.9429652E-2,-4.8134446E0,7.000145E0,-7.372673E0,8.371181E-1,4.219328E0,1.2000748E1,-1.0836086E1,-3.6408927E0,-2.329824E0,4.5373473E0,1.2107474E0,6.9739456E0,9.192519E0,1.5157811E1,-1.5135535E0,-8.961506E-1,-6.812879E-1,-1.835619E-1,-4.2821226E-1,2.1205543E-1,1.3859992E-1,5.838425E-1,-1.8101645E-1,3.0073324E-1,5.158953E-1,9.985065E-1,4.8767623E-1,1.1506847E0,8.3096534E-1,1.6195058E0],"categories":[],"categories_nodes":[],"categories_segments":[],"categories_sizes":[],"default_left":[0,0,0,0,0,0,0,0,0,0,0,0,0,0,0,0,0,0,0,0,0,0,0,0,0,0,0,0,0,0,0],"id":4,"left_children":[1,3,5,7,9,11,13,15,17,19,21,23,25,27,29,-1,-1,-1,-1,-1,-1,-1,-1,-1,-1,-1,-1,-1,-1,-1,-1],"loss_changes":[1.5586414E4,3.9540474E3,2.5775537E3,2.3903896E3,1.0183547E3,1.01091724E3,4.54667E2,6.461504E2,5.1431396E2,4.1743842E2,1.5591388E2,3.3108322E2,2.9825757E2,3.2343066E2,7.8520996E1,0E0,0E0,0E0,0E0,0E0,0E0,0E0,0E0,0E0,0E0,0E0,0E0,0E0,0E0,0E0,0E0],"parents":[2147483647,0,0,1,1,2,2,3,3,4,4,5,5,6,6,7,7,8,8,9,9,10,10,11,11,12,12,13,13,14,14],"right_children":[2,4,6,8,10,12,14,16,18,20,22,24,26,28,30,-1,-1,-1,-1,-1,-1,-1,-1,-1,-1,-1,-1,-1,-1,-1,-1],"split_conditions":[2.966247E-1,7.0526963E-1,1.2521385E0,-4.677863E-1,-4.677863E-1,-2.6460555E-1,-8.2932584E-2,-1.2321973E0,-7.1349436E-1,4.9222684E-1,1.0205505E0,5.704322E-2,7.0526963E-1,4.9222684E-1,-1.4976178E-1,-1.5135535E0,-8.961506E-1,-6.812879E-1,-1.835619E-1,-4.2821226E-1,2.1205543E-1,1.3859992E-1,5.838425E-1,-1.8101645E-1,3.0073324E-1,5.158953E-1,9.985065E-1,4.8767623E-1,1.1506847E0,8.3096534E-1,1.6195058E0],"split_indices":[4,10,4,4,4,11,10,4,10,7,10,8,10,7,21,0,0,0,0,0,0,0,0,0,0,0,0,0,0,0,0],"split_type":[0,0,0,0,0,0,0,0,0,0,0,0,0,0,0,0,0,0,0,0,0,0,0,0,0,0,0,0,0,0,0],"sum_hessian":[4.6E2,2.72E2,1.88E2,1.87E2,8.5E1,1.22E2,6.6E1,9.6E1,9.1E1,4.6E1,3.9E1,5.9E1,6.3E1,3.7E1,2.9E1,2.7E1,6.9E1,3.2E1,5.9E1,3.2E1,1.4E1,1.2E1,2.7E1,2.2E1,3.7E1,4.1E1,2.2E1,1.4E1,2.3E1,5E0,2.4E1],"tree_param":{"num_deleted":"0","num_feature":"27","num_nodes":"31","size_leaf_vector":"1"}},{"base_weights":[2.3895793E-2,-4.3422403E0,6.3304105E0,-6.662242E0,7.7988195E-1,3.8106813E0,1.0861698E1,-1.2096362E1,-4.8167076E0,-6.970547E0,2.2555823E0,1.091666E0,6.300216E0,7.480332E0,1.2957112E1,-1.4897336E0,-9.4698143E-1,-8.608085E-1,-3.3987164E-1,-1.2435786E-1,-7.821411E-1,-7.0415076E-4,4.3397632E-1,-2.0622712E-2,4.6737614E-1,4.31416E-1,8.8620645E-1,1.272548E-1,8.4619397E-1,1.0318416E0,1.7120517E0],"categories":[],"categories_nodes":[],"categories_segments":[],"categories_sizes":[],"default_left":[0,0,0,0,0,0,0,0,0,0,0,0,0,0,0,0,0,0,0,0,0,0,0,0,0,0,0,0,0,0,0],"id":5,"left_children":[1,3,5,7,9,11,13,15,17,19,21,23,25,27,29,-1,-1,-1,-1,-1,-1,-1,-1,-1,-1,-1,-1,-1,-1,-1,-1],"loss_changes":[1.272117E4,3.2493452E3,2.116539E3,1.8271592E3,9.9933136E2,8.257195E2,3.777964E2,2.0469922E2,7.341553E2,5.849359E1,3.442779E2,2.7991446E2,2.8739795E2,1.598529E2,2.6278174E2,0E0,0E0,0E0,0E0,0E0,0E0,0E0,0E0,0E0,0E0,0E0,0E0,0E0,0E0,0E0,0E0],"parents":[2147483647,0,0,1,1,2,2,3,3,4,4,5,5,6,6,7,7,8,8,9,9,10,10,11,11,12,12,13,13,14,14],"right_children":[2,4,6,8,10,12,14,16,18,20,22,24,26,28,30,-1,-1,-1,-1,-1,-1,-1,-1,-1,-1,-1,-1,-1,-1,-1,-1],"split_conditions":[2.966247E-1,6.47632E-1,1.2521385E0,-1.0410945E0,-1.2321973E0,-2.6460555E-1,-5.2524483E-1,-5.4049534E-1,-8.711348E-1,-6.907219E-1,-2.4134269E-2,8.6993295E-1,1.6919246E-1,1.4432412E0,1.8254467E0,-1.4897336E0,-9.4698143E-1,-8.608085E-1,-3.3987164E-1,-1.2435786E-1,-7.821411E-1,-7.0415076E-4,4.3397632E-1,-2.0622712E-2,4.6737614E-1,4.31416E-1,8.8620645E-1,1.272548E-1,8.4619397E-1,1.0318416E0,1.7120517E0],"split_indices":[4,11,4,4,4,11,11,7,10,25,7,4,9,4,4,0,0,0,0,0,0,0,0,0,0,0,0,0,0,0,0],"split_type":[0,0,0,0,0,0,0,0,0,0,0,0,0,0,0,0,0,0,0,0,0,0,0,0,0,0,0,0,0,0,0],"sum_hessian":[4.6E2,2.72E2,1.88E2,1.87E2,8.5E1,1.22E2,6.6E1,4.6E1,1.41E2,1.3E1,7.2E1,5.9E1,6.3E1,2.7E1,3.9E1,2E1,2.6E1,3.7E1,1.04E2,2E0,1.1E1,3.5E1,3.7E1,4.4E1,1.5E1,3.7E1,2.6E1,4E0,2.3E1,2.6E1,1.3E1],"tree_param":{"num_deleted":"0","num_feature":"27","num_nodes":"31","size_leaf_vector":"1"}},{"base_weights":[2.4480525E-2,-4.4389997E0,5.107775E0,-7.4735236E0,-1.293471E0,2.0876966E0,8.655871E0,-1.0630956E1,-4.922364E0,-7.3093805E0,-1.1277519E-1,-1.2360263E0,4.5497875E0,6.837475E0,1.24240465E1,-1.3190253E0,-8.2240736E-1,-6.2504244E-1,-1.4626767E-1,-8.304588E-1,-2.6628405E-1,-2.3881356E-1,2.3468696E-1,-3.5670525E-1,1.756834E-1,3.0788466E-1,9.1379166E-1,4.883823E-1,9.880676E-1,1.3924226E0,6.370506E-1],"categories":[],"categories_nodes":[],"categories_segments":[],"categories_sizes":[],"default_left":[0,0,0,0,0,0,0,0,0,0,0,0,0,0,0,0,0,0,0,0,0,0,0,0,0,0,0,0,0,0,0],"id":6,"left_children":[1,3,5,7,9,11,13,15,17,19,21,23,25,27,29,-1,-1,-1,-1,-1,-1,-1,-1,-1,-1,-1,-1,-1,-1,-1,-1],"loss_changes":[1.0482388E4,2.3384482E3,2.2964834E3,9.5456006E2,8.6573663E2,9.712538E2,5.9340234E2,2.3031787E2,3.1707947E2,7.0371704E1,5.820522E2,3.620649E2,4.3078857E2,3.6197412E2,1.9281934E2,0E0,0E0,0E0,0E0,0E0,0E0,0E0,0E0,0E0,0E0,0E0,0E0,0E0,0E0,0E0,0E0],"parents":[2147483647,0,0,1,1,2,2,3,3,4,4,5,5,6,6,7,7,8,8,9,9,10,10,11,11,12,12,13,13,14,14],"right_children":[2,4,6,8,10,12,14,16,18,20,22,24,26,28,30,-1,-1,-1,-1,-1,-1,-1,-1,-1,-1,-1,-1,-1,-1,-1,-1],"split_conditions":[1.05521955E-1,7.4707866E-2,8.6993295E-1,-6.5888906E-1,-1.2321973E0,-2.4057302E-1,1.634344E0,-5.2720207E-1,4.9222684E-1,7.2654915E-1,-2.4134269E-2,2.981544E-1,1.008588E0,7.4707866E-2,1.7449213E0,-1.3190253E0,-8.2240736E-1,-6.2504244E-1,-1.4626767E-1,-8.304588E-1,-2.6628405E-1,-2.3881356E-1,2.3468696E-1,-3.5670525E-1,1.756834E-1,3.0788466E-1,9.1379166E-1,4.883823E-1,9.880676E-1,1.3924226E0,6.370506E-1],"split_indices":[4,10,4,4,4,10,4,9,7,12,7,9,7,10,1,0,0,0,0,0,0,0,0,0,0,0,0,0,0,0,0],"split_type":[0,0,0,0,0,0,0,0,0,0,0,0,0,0,0,0,0,0,0,0,0,0,0,0,0,0,0,0,0,0,0],"sum_hessian":[4.6E2,2.45E2,2.15E2,1.24E2,1.21E2,1.17E2,9.8E1,5.4E1,7E1,1.9E1,1.02E2,5E1,6.7E1,6.8E1,3E1,2.4E1,3E1,5E1,2E1,1.5E1,4E0,5.3E1,4.9E1,2.8E1,2.2E1,5.2E1,1.5E1,4.3E1,2.5E1,2.3E1,7E0],"tree_param":{"num_deleted":"0","num_feature":"27","num_nodes":"31","size_leaf_vector":"1"}},{"base_weights":[2.3189403E-2,-3.0440738E0,6.0982E0,-6.162974E0,-3.225781E-1,4.7724853E0,1.1247107E1,-7.6984334E0,1.3843378E-1,-1.5998912E0,5.036251E0,2.7382708E0,7.8717103E0,6.081309E0,1.2779501E1,-1.05862E0,-5.8919626E-1,-1.0864284E-1,4.1432047E-1,-4.4289708E-1,-1.6757464E-2,3.534223E-1,6.959659E-1,4.9879458E-2,4.406542E-1,4.681203E-1,9.014165E-1,7.2521555E-1,2.8047124E-1,6.1208254E-1,1.3859179E0],"categories":[],"categories_nodes":[],"categories_segments":[],"categories_sizes":[],"default_left":[0,0,0,0,0,0,0,0,0,0,0,0,0,0,0,0,0,0,0,0,0,0,0,0,0,0,0,0,0,0,0],"id":7,"left_children":[1,3,5,7,9,11,13,15,17,19,21,23,25,27,29,-1,-1,-1,-1,-1,-1,-1,-1,-1,-1,-1,-1,-1,-1,-1,-1],"loss_changes":[8.608679E3,2.6038506E3,1.0043501E3,1.3846704E3,1.1374663E3,7.665061E2,1.6768091E2,5.3754297E2,1.4675479E2,5.422444E2,6.785144E1,2.854782E2,1.3640845E2,1.4187286E1,8.052246E1,0E0,0E0,0E0,0E0,0E0,0E0,0E0,0E0,0E0,0E0,0E0,0E0,0E0,0E0,0E0,0E0],"parents":[2147483647,0,0,1,1,2,2,3,3,4,4,5,5,6,6,7,7,8,8,9,9,10,10,11,11,12,12,13,13,14,14],"right_children":[2,4,6,8,10,12,14,16,18,20,22,24,26,28,30,-1,-1,-1,-1,-1,-1,-1,-1,-1,-1,-1,-1,-1,-1,-1,-1],"split_conditions":[4.8772746E-1,-4.677863E-1,1.634344E0,1.178191E0,1.0205505E0,7.4707866E-2,-4.159667E-3,-5.4049534E-1,1.008588E0,-5.558539E-1,1.6511123E0,8.6993295E-1,-2.823148E-1,3.239468E-1,-3.188299E-1,-1.05862E0,-5.8919626E-1,-1.0864284E-1,4.1432047E-1,-4.4289708E-1,-1.6757464E-2,3.534223E-1,6.959659E-1,4.9879458E-2,4.406542E-1,4.681203E-1,9.014165E-1,7.2521555E-1,2.8047124E-1,6.1208254E-1,1.3859179E0],"split_indices":[4,4,4,10,10,10,2,7,7,10,10,4,7,9,15,0,0,0,0,0,0,0,0,0,0,0,0,0,0,0,0],"split_type":[0,0,0,0,0,0,0,0,0,0,0,0,0,0,0,0,0,0,0,0,0,0,0,0,0,0,0,0,0,0,0],"sum_hessian":[4.6E2,3.06E2,1.54E2,1.42E2,1.64E2,1.24E2,3E1,1.14E2,2.8E1,1.33E2,3.1E1,7.6E1,4.8E1,8E0,2.2E1,4.2E1,7.2E1,2.2E1,6E0,4.4E1,8.9E1,1.9E1,1.2E1,3.3E1,4.3E1,1.4E1,3.4E1,5E0,3E0,4E0,1.8E1],"tree_param":{"num_deleted":"0","num_feature":"27","num_nodes":"31","size_leaf_vector":"1"}},{"base_weights":[2.978782E-2,-4.17181E0,3.6869287E0,-7.11729E0,-1.347962E0,1.3870687E0,7.1110926E0,-1.121406E1,-5.89629E0,-5.4743414E0,-8.477801E-2,-1.2187923E0,3.5897522E0,5.1798296E0,9.608763E0,-1.2720914E0,-7.456631E-1,-6.32767E-1,-1.061142E-1,-6.069923E-1,1.1150894E-1,-1.8331455E-1,2.922878E-1,-3.764968E-1,6.118877E-2,2.457871E-1,7.7063715E-1,2.908192E-1,8.062064E-1,7.6785713E-1,1.3323916E0],"categories":[],"categories_nodes":[],"categories_segments":[],"categories_sizes":[],"default_left":[0,0,0,0,0,0,0,0,0,0,0,0,0,0,0,0,0,0,0,0,0,0,0,0,0,0,0,0,0,0,0],"id":8,"left_children":[1,3,5,7,9,11,13,15,17,19,21,23,25,27,29,-1,-1,-1,-1,-1,-1,-1,-1,-1,-1,-1,-1,-1,-1,-1,-1],"loss_changes":[7.099032E3,1.7786875E3,1.9352849E3,4.5910498E2,5.781097E2,8.596183E2,4.27771E2,3.5368164E1,1.6640552E2,1.0880664E2,4.5758804E2,3.2392877E2,3.584801E2,3.5630273E2,1.9887158E2,0E0,0E0,0E0,0E0,0E0,0E0,0E0,0E0,0E0,0E0,0E0,0E0,0E0,0E0,0E0,0E0],"parents":[2147483647,0,0,1,1,2,2,3,3,4,4,5,5,6,6,7,7,8,8,9,9,10,10,11,11,12,12,13,13,14,14],"right_children":[2,4,6,8,10,12,14,16,18,20,22,24,26,28,30,-1,-1,-1,-1,-1,-1,-1,-1,-1,-1,-1,-1,-1,-1,-1,-1],"split_conditions":[-8.5580796E-2,7.4707866E-2,8.6993295E-1,-9.914651E-1,-7.986759E-1,-2.4057302E-1,6.205593E-1,4.0457326E-1,6.2400943E-1,2.1240337E0,1.3358314E0,-2.4134269E-2,1.008588E0,-8.2932584E-2,1.521088E0,-1.2720914E0,-7.456631E-1,-6.32767E-1,-1.061142E-1,-6.069923E-1,1.1150894E-1,-1.8331455E-1,2.922878E-1,-3.764968E-1,6.118877E-2,2.457871E-1,7.7063715E-1,2.908192E-1,8.062064E-1,7.6785713E-1,1.3323916E0],"split_indices":[4,10,4,9,7,10,9,5,16,10,10,7,7,10,21,0,0,0,0,0,0,0,0,0,0,0,0,0,0,0,0],"split_type":[0,0,0,0,0,0,0,0,0,0,0,0,0,0,0,0,0,0,0,0,0,0,0,0,0,0,0,0,0,0,0],"sum_hessian":[4.6E2,2.14E2,2.46E2,1.04E2,1.1E2,1.48E2,9.8E1,2.2E1,8.2E1,2.5E1,8.5E1,6.8E1,8E1,5.7E1,4.1E1,1.4E1,8E0,7.5E1,7E0,2.3E1,2E0,5.4E1,3.1E1,2.8E1,4E1,6.4E1,1.6E1,3.3E1,2.4E1,2.9E1,1.2E1],"tree_param":{"num_deleted":"0","num_feature":"27","num_nodes":"31","size_leaf_vector":"1"}},{"base_weights":[2.8446835E-2,-4.5943675E0,2.7956386E0,-5.8676577E0,5.936822E-1,8.960416E-1,6.4322786E0,-8.589518E0,-4.383778E0,-1.6374345E0,2.3488915E0,-2.6184368E0,2.373295E0,4.9841084E0,9.4481325E0,-1.1187246E0,-6.8040776E-1,-8.0554754E-1,-3.381805E-1,-4.6781635E-1,-5.7586905E-2,3.860698E-1,7.2161355E-3,-4.1274387E-1,8.8036895E-2,-9.302436E-2,3.4945878E-1,3.8669235E-1,8.443102E-1,1.0626228E0,4.732831E-1],"categories":[],"categories_nodes":[],"categories_segments":[],"categories_sizes":[],"default_left":[0,0,0,0,0,0,0,0,0,0,0,0,0,0,0,0,0,0,0,0,0,0,0,0,0,0,0,0,0,0,0],"id":9,"left_children":[1,3,5,7,9,11,13,15,17,19,21,23,25,27,29,-1,-1,-1,-1,-1,-1,-1,-1,-1,-1,-1,-1,-1,-1,-1,-1],"loss_changes":[5.9100547E3,1.146303E3,1.9906919E3,5.237539E2,1.4090884E2,9.978435E2,3.8528906E2,1.4650928E2,3.112207E2,4.8952915E1,6.856091E1,3.0457678E2,5.033224E2,2.3399036E2,1.2191528E2,0E0,0E0,0E0,0E0,0E0,0E0,0E0,0E0,0E0,0E0,0E0,0E0,0E0,0E0,0E0,0E0],"parents":[2147483647,0,0,1,1,2,2,3,3,4,4,5,5,6,6,7,7,8,8,9,9,10,10,11,11,12,12,13,13,14,14],"right_children":[2,4,6,8,10,12,14,16,18,20,22,24,26,28,30,-1,-1,-1,-1,-1,-1,-1,-1,-1,-1,-1,-1,-1,-1,-1,-1],"split_conditions":[-2.7668354E-1,1.178191E0,8.6993295E-1,-5.4049534E-1,-1.2742001E-1,-5.558539E-1,1.634344E0,-1.1478741E0,-8.711348E-1,-1.2321973E0,8.988501E-1,4.6580496E-1,-5.4049534E-1,5.476292E-1,1.7449213E0,-1.1187246E0,-6.8040776E-1,-8.0554754E-1,-3.381805E-1,-4.6781635E-1,-5.7586905E-2,3.860698E-1,7.2161355E-3,-4.1274387E-1,8.8036895E-2,-9.302436E-2,3.4945878E-1,3.8669235E-1,8.443102E-1,1.0626228E0,4.732831E-1],"split_indices":[4,10,4,7,9,10,4,6,10,4,20,9,7,10,1,0,0,0,0,0,0,0,0,0,0,0,0,0,0,0,0],"split_type":[0,0,0,0,0,0,0,0,0,0,0,0,0,0,0,0,0,0,0,0,0,0,0,0,0,0,0,0,0,0,0],"sum_hessian":[4.6E2,1.72E2,2.88E2,1.38E2,3.4E1,1.9E2,9.8E1,4.7E1,9.1E1,1.5E1,1.9E1,5.6E1,1.34E2,6.8E1,3E1,1.7E1,3E1,1.8E1,7.3E1,3E0,1.2E1,1.1E1,8E0,3.9E1,1.7E1,3.4E1,1E2,5.3E1,1.5E1,2.3E1,7E0],"tree_param":{"num_deleted":"0","num_feature":"27","num_nodes":"31","size_leaf_vector":"1"}},{"base_weights":[2.4785701E-2,-2.2792585E0,4.5881195E0,-6.5875983E0,-1.1174423E0,2.954143E0,7.057622E0,-8.138681E0,-2.0853984E0,-2.71294E0,1.4851125E0,1.2405066E0,5.992123E0,5.395147E0,9.088064E0,-1.1632072E0,-6.913261E-1,-3.5437593E-1,1.42195E-1,-4.5485768E-1,-8.416066E-2,-2.769417E-1,2.3387967E-1,-2.728282E-1,2.1500157E-1,4.1736785E-1,8.017241E-1,3.226924E-1,6.3448036E-1,5.6618756E-1,1.0568877E0],"categories":[],"categories_nodes":[],"categories_segments":[],"categories_sizes":[],"default_left":[0,0,0,0,0,0,0,0,0,0,0,0,0,0,0,0,0,0,0,0,0,0,0,0,0,0,0,0,0,0,0],"id":10,"left_children":[1,3,5,7,9,11,13,15,17,19,21,23,25,27,29,-1,-1,-1,-1,-1,-1,-1,-1,-1,-1,-1,-1,-1,-1,-1,-1],"loss_changes":[4.8574683E3,1.5293269E3,6.045925E2,4.3694116E2,1.01305493E3,4.8713617E2,1.5687769E2,1.2506641E2,9.710869E1,5.1487036E2,3.4425537E2,2.2966403E2,9.174585E1,5.365222E1,7.207251E1,0E0,0E0,0E0,0E0,0E0,0E0,0E0,0E0,0E0,0E0,0E0,0E0,0E0,0E0,0E0,0E0],"parents":[2147483647,0,0,1,1,2,2,3,3,4,4,5,5,6,6,7,7,8,8,9,9,10,10,11,11,12,12,13,13,14,14],"right_children":[2,4,6,8,10,12,14,16,18,20,22,24,26,28,30,-1,-1,-1,-1,-1,-1,-1,-1,-1,-1,-1,-1,-1,-1,-1,-1],"split_conditions":[4.8772746E-1,-1.0410945E0,7.4707866E-2,8.629101E-1,3.8998875E-1,1.4432412E0,1.2521385E0,-1.6144028E0,2.4393146E0,-2.4134269E-2,-1.0568565E0,-1.1864157E0,3.2755747E-1,-2.823148E-1,9.850715E-1,-1.1632072E0,-6.913261E-1,-3.5437593E-1,1.42195E-1,-4.5485768E-1,-8.416066E-2,-2.769417E-1,2.3387967E-1,-2.728282E-1,2.1500157E-1,4.1736785E-1,8.017241E-1,3.226924E-1,6.3448036E-1,5.6618756E-1,1.0568877E0],"split_indices":[4,4,10,10,10,4,4,4,10,7,7,10,8,7,16,0,0,0,0,0,0,0,0,0,0,0,0,0,0,0,0],"split_type":[0,0,0,0,0,0,0,0,0,0,0,0,0,0,0,0,0,0,0,0,0,0,0,0,0,0,0,0,0,0,0],"sum_hessian":[4.6E2,3.06E2,1.54E2,6.4E1,2.42E2,9.4E1,6E1,4.7E1,1.7E1,1.5E2,9.2E1,6.1E1,3.3E1,3.5E1,2.5E1,1E1,3.7E1,1.2E1,5E0,7.5E1,7.5E1,1.5E1,7.7E1,1.1E1,5E1,1.9E1,1.4E1,1.2E1,2.3E1,9E0,1.6E1],"tree_param":{"num_deleted":"0","num_feature":"27","num_nodes":"31","size_leaf_vector":"1"}},{"base_weights":[2.467654E-2,-3.8418634E0,2.3391635E0,-4.897696E0,4.6106806E-1,4.2506063E-1,4.777428E0,-8.504602E0,-3.9522402E0,-1.8822937E0,1.7655305E0,-6.77124E-1,3.7212472E0,2.5569692E0,6.4927626E0,-1.0640763E0,-6.237435E-1,-6.1105084E-1,-2.4658535E-1,-4.053702E-1,-4.6681214E-2,2.5201184E-1,-7.924881E-2,-1.90963E-1,1.6603202E-1,4.87075E-1,1.4040588E-1,-4.2139968E-1,3.1474948E-1,5.560698E-1,9.890407E-1],"categories":[],"categories_nodes":[],"categories_segments":[],"categories_sizes":[],"default_left":[0,0,0,0,0,0,0,0,0,0,0,0,0,0,0,0,0,0,0,0,0,0,0,0,0,0,0,0,0,0,0],"id":11,"left_children":[1,3,5,7,9,11,13,15,17,19,21,23,25,27,29,-1,-1,-1,-1,-1,-1,-1,-1,-1,-1,-1,-1,-1,-1,-1,-1],"loss_changes":[4.134502E3,7.8822754E2,1.346758E3,4.4040186E2,1.10312195E2,5.9469977E2,4.6711963E2,6.923389E1,3.442306E2,3.8064327E1,4.6392906E1,3.57523E2,1.02369446E2,2.4117401E2,1.6984717E2,0E0,0E0,0E0,0E0,0E0,0E0,0E0,0E0,0E0,0E0,0E0,0E0,0E0,0E0,0E0,0E0],"parents":[2147483647,0,0,1,1,2,2,3,3,4,4,5,5,6,6,7,7,8,8,9,9,10,10,11,11,12,12,13,13,14,14],"right_children":[2,4,6,8,10,12,14,16,18,20,22,24,26,28,30,-1,-1,-1,-1,-1,-1,-1,-1,-1,-1,-1,-1,-1,-1,-1,-1],"split_conditions":[-2.7668354E-1,1.178191E0,6.788302E-1,-8.711348E-1,1.0729203E-1,7.0526963E-1,1.6919246E-1,-4.8851347E-1,-1.0410945E0,-1.0568565E0,6.2139964E-1,4.9222684E-1,8.528056E-1,-1.3440561E0,1.7138783E0,-1.0640763E0,-6.237435E-1,-6.1105084E-1,-2.4658535E-1,-4.053702E-1,-4.6681214E-2,2.5201184E-1,-7.924881E-2,-1.90963E-1,1.6603202E-1,4.87075E-1,1.4040588E-1,-4.2139968E-1,3.1474948E-1,5.560698E-1,9.890407E-1],"split_indices":[4,10,4,10,21,10,9,9,4,7,21,7,13,10,21,0,0,0,0,0,0,0,0,0,0,0,0,0,0,0,0],"split_type":[0,0,0,0,0,0,0,0,0,0,0,0,0,0,0,0,0,0,0,0,0,0,0,0,0,0,0,0,0,0,0],"sum_hessian":[4.6E2,1.72E2,2.88E2,1.38E2,3.4E1,1.62E2,1.26E2,2.7E1,1.11E2,1.2E1,2.2E1,1.22E2,4E1,5.6E1,7E1,1.2E1,1.5E1,4.4E1,6.7E1,4E0,8E0,1.7E1,5E0,8E1,4.2E1,2.6E1,1.4E1,4E0,5.2E1,5.7E1,1.3E1],"tree_param":{"num_deleted":"0","num_feature":"27","num_nodes":"31","size_leaf_vector":"1"}},{"base_weights":[2.0508623E-2,-3.474006E0,2.1123097E0,-6.616123E0,-2.2494373E0,3.862519E-1,4.3110113E0,-9.911875E-1,-5.2422094E0,-3.4122455E0,7.523677E-1,-2.4164994E0,1.5088421E0,2.1416714E0,5.88639E0,-5.7495266E-1,-2.319107E-1,-4.93031E-1,-1.8861786E-1,-5.6690215E-3,4.1122776E-1,-3.588998E-1,9.261122E-2,8.4587805E-2,4.8838216E-1,4.237561E-2,4.6992832E-1,4.9518958E-1,9.818527E-1],"categories":[],"categories_nodes":[],"categories_segments":[],"categories_sizes":[],"default_left":[0,0,0,0,0,0,0,0,0,0,0,0,0,0,0,0,0,0,0,0,0,0,0,0,0,0,0,0,0],"id":12,"left_children":[1,3,5,7,9,11,13,-1,15,17,19,21,23,25,27,-1,-1,-1,-1,-1,-1,-1,-1,-1,-1,-1,-1,-1,-1],"loss_changes":[3.3771694E3,6.507761E2,1.0951149E3,1.6538745E2,4.4237323E2,5.164997E2,4.2141992E2,0E0,4.0052124E1,2.0151733E2,9.809413E1,1.8752658E2,2.5765527E2,2.3966545E2,2.196228E2,0E0,0E0,0E0,0E0,0E0,0E0,0E0,0E0,0E0,0E0,0E0,0E0,0E0,0E0],"parents":[2147483647,0,0,1,1,2,2,3,3,4,4,5,5,6,6,8,8,9,9,10,10,11,11,12,12,13,13,14,14],"right_children":[2,4,6,8,10,12,14,-1,16,18,20,22,24,26,28,-1,-1,-1,-1,-1,-1,-1,-1,-1,-1,-1,-1,-1,-1],"split_conditions":[-2.7668354E-1,-3.9821348E-1,6.788302E-1,-1.0172575E0,2.3404628E-1,-5.558539E-1,-3.9821348E-1,-9.911875E-1,4.9159735E-1,-8.499918E-1,1.6511123E0,7.504074E-1,1.008588E0,6.334555E-1,1.8254467E0,-5.7495266E-1,-2.319107E-1,-4.93031E-1,-1.8861786E-1,-5.6690215E-3,4.1122776E-1,-3.588998E-1,9.261122E-2,8.4587805E-2,4.8838216E-1,4.237561E-2,4.6992832E-1,4.9518958E-1,9.818527E-1],"split_indices":[4,10,4,9,7,10,10,0,9,4,10,7,7,9,4,0,0,0,0,0,0,0,0,0,0,0,0,0,0],"split_type":[0,0,0,0,0,0,0,0,0,0,0,0,0,0,0,0,0,0,0,0,0,0,0,0,0,0,0,0,0],"sum_hessian":[4.6E2,1.72E2,2.88E2,4.7E1,1.25E2,1.62E2,1.26E2,1.2E1,3.5E1,9E1,3.5E1,4.6E1,1.16E2,5.4E1,7.2E1,2.9E1,6E0,4.4E1,4.6E1,2.9E1,6E0,3.4E1,1.2E1,9.8E1,1.8E1,3.3E1,2.1E1,6E1,1.2E1],"tree_param":{"num_deleted":"0","num_feature":"27","num_nodes":"29","size_leaf_vector":"1"}},{"base_weights":[1.8940544E-2,-3.138593E0,1.9090247E0,-4.039083E0,5.273128E-1,6.173606E-1,4.38174E0,-6.1445656E0,-2.896667E0,-1.5260028E0,1.6649559E0,-2.2949184E-1,4.1483E0,3.9080822E0,1.1072091E0,-9.38913E-1,-5.1550734E-1,-4.844659E-1,-1.8272834E-1,-3.3958587E-1,-3.17638E-2,2.3206149E-1,-5.7951357E-2,-1.1478722E-1,2.3520505E-1,2.7561623E-1,6.5063894E-1,2.6278278E-1,5.5707306E-1],"categories":[],"categories_nodes":[],"categories_segments":[],"categories_sizes":[],"default_left":[0,0,0,0,0,0,0,0,0,0,0,0,0,0,0,0,0,0,0,0,0,0,0,0,0,0,0,0,0],"id":13,"left_children":[1,3,5,7,9,11,13,15,17,19,21,23,25,27,-1,-1,-1,-1,-1,-1,-1,-1,-1,-1,-1,-1,-1,-1,-1],"loss_changes":[2.7572417E3,5.7322205E2,9.2033716E2,3.1654297E2,8.429863E1,5.720774E2,2.7045422E2,1.0570093E2,1.8279736E2,2.8294432E1,3.5191772E1,3.7017975E2,1.03530396E2,1.8545068E2,0E0,0E0,0E0,0E0,0E0,0E0,0E0,0E0,0E0,0E0,0E0,0E0,0E0,0E0,0E0],"parents":[2147483647,0,0,1,1,2,2,3,3,4,4,5,5,6,6,7,7,8,8,9,9,10,10,11,11,12,12,13,13],"right_children":[2,4,6,8,10,12,14,16,18,20,22,24,26,28,-1,-1,-1,-1,-1,-1,-1,-1,-1,-1,-1,-1,-1,-1,-1],"split_conditions":[-2.7668354E-1,1.178191E0,8.6993295E-1,-5.4049534E-1,1.0729203E-1,8.629101E-1,2.5898578E0,-1.4233E0,-3.9821348E-1,-1.0568565E0,6.2139964E-1,7.504074E-1,1.6511123E0,-8.2932584E-2,1.1072091E0,-9.38913E-1,-5.1550734E-1,-4.844659E-1,-1.8272834E-1,-3.3958587E-1,-3.17638E-2,2.3206149E-1,-5.7951357E-2,-1.1478722E-1,2.3520505E-1,2.7561623E-1,6.5063894E-1,2.6278278E-1,5.5707306E-1],"split_indices":[4,10,4,7,21,10,4,4,10,7,21,7,10,10,0,0,0,0,0,0,0,0,0,0,0,0,0,0,0],"split_type":[0,0,0,0,0,0,0,0,0,0,0,0,0,0,0,0,0,0,0,0,0,0,0,0,0,0,0,0,0],"sum_hessian":[4.6E2,1.72E2,2.88E2,1.38E2,3.4E1,1.9E2,9.8E1,4.7E1,9.1E1,1.2E1,2.2E1,1.54E2,3.6E1,9.3E1,5E0,9E0,3.8E1,3.1E1,6E1,4E0,8E0,1.7E1,5E0,1.14E2,4E1,2.4E1,1.2E1,5.4E1,3.9E1],"tree_param":{"num_deleted":"0","num_feature":"27","num_nodes":"29","size_leaf_vector":"1"}},{"base_weights":[1.8466925E-2,-1.8417817E0,2.7053952E0,-3.3462687E0,7.580736E-2,1.5118754E0,4.906775E0,-7.0350914E0,-2.6730688E0,-2.7535036E0,9.177744E-1,7.7566206E-1,5.08589E0,3.901031E0,8.066236E0,-8.500037E-1,-4.6642375E-1,-3.8919714E-1,-1.21052556E-1,-4.0475017E-1,-1.362205E-1,1.3815768E-2,3.4629673E-1,1.7922739E-2,3.1244645E-1,8.369395E-2,5.4890984E-1,3.039785E-1,5.648848E-1,8.435313E-1,1.4495735E-1],"categories":[],"categories_nodes":[],"categories_segments":[],"categories_sizes":[],"default_left":[0,0,0,0,0,0,0,0,0,0,0,0,0,0,0,0,0,0,0,0,0,0,0,0,0,0,0,0,0,0,0],"id":14,"left_children":[1,3,5,7,9,11,13,15,17,19,21,23,25,27,29,-1,-1,-1,-1,-1,-1,-1,-1,-1,-1,-1,-1,-1,-1,-1,-1],"loss_changes":[2.309224E3,7.8785535E2,4.891582E2,3.611421E2,2.9077167E2,3.2232843E2,1.7825562E2,4.0236816E1,2.2882202E2,4.4895935E1,1.860434E2,1.4513437E2,3.1383423E1,6.110431E1,2.440332E1,0E0,0E0,0E0,0E0,0E0,0E0,0E0,0E0,0E0,0E0,0E0,0E0,0E0,0E0,0E0,0E0],"parents":[2147483647,0,0,1,1,2,2,3,3,4,4,5,5,6,6,7,7,8,8,9,9,10,10,11,11,12,12,13,13,14,14],"right_children":[2,4,6,8,10,12,14,16,18,20,22,24,26,28,30,-1,-1,-1,-1,-1,-1,-1,-1,-1,-1,-1,-1,-1,-1,-1,-1],"split_conditions":[2.966247E-1,2.3234831E-1,7.2372884E-1,-1.2321973E0,-7.986759E-1,8.629101E-1,1.521088E0,-8.2023877E-1,-2.4134269E-2,4.9220285E-1,1.6511123E0,1.4432412E0,-1.1396102E0,1.263534E-1,1.5937736E-2,-8.500037E-1,-4.6642375E-1,-3.8919714E-1,-1.21052556E-1,-4.0475017E-1,-1.362205E-1,1.3815768E-2,3.4629673E-1,1.7922739E-2,3.1244645E-1,8.369395E-2,5.4890984E-1,3.039785E-1,5.648848E-1,8.435313E-1,1.4495735E-1],"split_indices":[4,10,9,4,7,10,21,16,7,15,10,4,17,11,2,0,0,0,0,0,0,0,0,0,0,0,0,0,0,0,0],"split_type":[0,0,0,0,0,0,0,0,0,0,0,0,0,0,0,0,0,0,0,0,0,0,0,0,0,0,0,0,0,0,0],"sum_hessian":[4.6E2,2.72E2,1.88E2,1.52E2,1.2E2,1.23E2,6.5E1,2.2E1,1.3E2,2.7E1,9.3E1,1.03E2,2E1,5.1E1,1.4E1,1.2E1,1E1,7E1,6E1,1.3E1,1.4E1,7.2E1,2.1E1,8.3E1,2E1,2E0,1.8E1,3.6E1,1.5E1,1.3E1,1E0],"tree_param":{"num_deleted":"0","num_feature":"27","num_nodes":"31","size_leaf_vector":"1"}},{"base_weights":[1.8383862E-2,-2.1845722E0,1.9358623E0,-4.435827E0,-9.716031E-1,9.07925E-1,4.28116E0,-7.6279273E0,-3.7067292E0,-1.9913008E0,1.3986683E0,2.2270377E-1,4.3027234E0,3.4313734E0,7.200286E0,-9.338085E-1,-4.0763956E-1,-4.7981086E-1,-2.634726E-1,-3.6288E-1,-8.664464E-2,-4.6975758E-2,2.3168658E-1,-1.4417934E-1,1.0106701E-1,4.7283792E-1,4.6027757E-2,2.3171334E-1,4.333923E-1,1.1915131E-1,7.521437E-1],"categories":[],"categories_nodes":[],"categories_segments":[],"categories_sizes":[],"default_left":[0,0,0,0,0,0,0,0,0,0,0,0,0,0,0,0,0,0,0,0,0,0,0,0,0,0,0,0,0,0,0],"id":15,"left_children":[1,3,5,7,9,11,13,15,17,19,21,23,25,27,29,-1,-1,-1,-1,-1,-1,-1,-1,-1,-1,-1,-1,-1,-1,-1,-1],"loss_changes":[1.9515488E3,5.8279114E2,5.915854E2,1.4627673E2,3.435766E2,4.014723E2,1.6134058E2,4.089215E1,6.1065918E1,1.7920868E2,7.485847E1,1.9163449E2,4.5254883E1,5.029712E1,2.1913696E1,0E0,0E0,0E0,0E0,0E0,0E0,0E0,0E0,0E0,0E0,0E0,0E0,0E0,0E0,0E0,0E0],"parents":[2147483647,0,0,1,1,2,2,3,3,4,4,5,5,6,6,7,7,8,8,9,9,10,10,11,11,12,12,13,13,14,14],"right_children":[2,4,6,8,10,12,14,16,18,20,22,24,26,28,30,-1,-1,-1,-1,-1,-1,-1,-1,-1,-1,-1,-1,-1,-1,-1,-1],"split_conditions":[-8.5580796E-2,-2.4057302E-1,7.36625E-1,-1.3071628E0,2.3404628E-1,8.629101E-1,1.521088E0,4.9222684E-1,-2.823148E-1,-8.499918E-1,-7.757393E-1,-7.1349436E-1,1.5937736E-2,-2.4057302E-1,-4.200109E-3,-9.338085E-1,-4.0763956E-1,-4.7981086E-1,-2.634726E-1,-3.6288E-1,-8.664464E-2,-4.6975758E-2,2.3168658E-1,-1.4417934E-1,1.0106701E-1,4.7283792E-1,4.6027757E-2,2.3171334E-1,4.333923E-1,1.1915131E-1,7.521437E-1],"split_indices":[4,10,9,11,7,10,21,7,7,4,6,10,2,10,2,0,0,0,0,0,0,0,0,0,0,0,0,0,0,0,0],"split_type":[0,0,0,0,0,0,0,0,0,0,0,0,0,0,0,0,0,0,0,0,0,0,0,0,0,0,0,0,0,0,0],"sum_hessian":[4.6E2,2.14E2,2.46E2,7.4E1,1.4E2,1.72E2,7.4E1,1.2E1,6.2E1,9.8E1,4.2E1,1.44E2,2.8E1,5.9E1,1.5E1,7E0,5E0,2.9E1,3.3E1,3.9E1,5.9E1,1.4E1,2.8E1,4.6E1,9.8E1,2.5E1,3E0,2.8E1,3.1E1,1E0,1.4E1],"tree_param":{"num_deleted":"0","num_feature":"27","num_nodes":"31","size_leaf_vector":"1"}},{"base_weights":[1.5813533E-2,-2.4024692E0,1.4633813E0,-5.772571E0,-1.7396928E0,6.3353217E-1,4.1000953E0,-8.7435335E-1,-4.7465563E0,-3.297274E0,-5.177061E-1,-7.740025E-2,3.5782619E0,3.3978717E0,8.4040445E-1,-4.9634576E-1,-1.6460648E-1,-3.7190306E-1,-3.0664826E-2,-1.1803319E-1,1.4948244E-1,-1.5541196E-1,6.802239E-2,2.1726413E-1,5.4098105E-1,1.5084769E-1,4.5826554E-1],"categories":[],"categories_nodes":[],"categories_segments":[],"categories_sizes":[],"default_left":[0,0,0,0,0,0,0,0,0,0,0,0,0,0,0,0,0,0,0,0,0,0,0,0,0,0,0],"id":16,"left_children":[1,3,5,7,9,11,13,-1,15,17,19,21,23,25,-1,-1,-1,-1,-1,-1,-1,-1,-1,-1,-1,-1,-1],"loss_changes":[1.6173052E3,3.7637445E2,6.29756E2,4.3849365E1,2.7618115E2,4.6294128E2,1.7998523E2,0E0,7.2973022E0,7.958374E1,1.1244944E2,2.0132204E2,9.894824E1,1.2963715E2,0E0,0E0,0E0,0E0,0E0,0E0,0E0,0E0,0E0,0E0,0E0,0E0,0E0],"parents":[2147483647,0,0,1,1,2,2,3,3,4,4,5,5,6,6,8,8,9,9,10,10,11,11,12,12,13,13],"right_children":[2,4,6,8,10,12,14,-1,16,18,20,22,24,26,-1,-1,-1,-1,-1,-1,-1,-1,-1,-1,-1,-1,-1],"split_conditions":[-2.7668354E-1,-8.711348E-1,1.008588E0,-1.2967281E0,-2.823148E-1,8.629101E-1,2.0165493E0,-8.7435335E-1,4.9159735E-1,1.6511123E0,1.3358314E0,-5.558539E-1,6.788302E-1,-5.558539E-1,8.4040445E-1,-4.9634576E-1,-1.6460648E-1,-3.7190306E-1,-3.0664826E-2,-1.1803319E-1,1.4948244E-1,-1.5541196E-1,6.802239E-2,2.1726413E-1,5.4098105E-1,1.5084769E-1,4.5826554E-1],"split_indices":[4,10,7,6,7,10,4,0,9,10,10,10,4,10,0,0,0,0,0,0,0,0,0,0,0,0,0],"split_type":[0,0,0,0,0,0,0,0,0,0,0,0,0,0,0,0,0,0,0,0,0,0,0,0,0,0,0],"sum_hessian":[4.6E2,1.72E2,2.88E2,2.7E1,1.45E2,2.2E2,6.8E1,5E0,2.2E1,6.3E1,8.2E1,1.78E2,4.2E1,6E1,8E0,2E1,2E0,5.5E1,8E0,6.2E1,2E1,6E1,1.18E2,2.5E1,1.7E1,2.4E1,3.6E1],"tree_param":{"num_deleted":"0","num_feature":"27","num_nodes":"27","size_leaf_vector":"1"}},{"base_weights":[1.469562E-2,-1.0556386E0,2.8379023E0,-4.554136E0,-5.7930225E-1,1.8659096E0,4.567624E0,-1.0125775E0,-3.9944239E0,-1.1840141E0,1.8189647E0,1.0594114E0,4.934702E0,2.8689005E0,5.8118467E0,-4.5482913E-1,-1.9887657E-1,-2.279198E-1,-2.347797E-4,1.3715078E-1,4.555997E-1,-4.1089422E-1,1.3658802E-1,1.1440607E-1,5.36385E-1,-2.6678085E-2,3.406335E-1,4.4486806E-1,7.740957E-1],"categories":[],"categories_nodes":[],"categories_segments":[],"categories_sizes":[],"default_left":[0,0,0,0,0,0,0,0,0,0,0,0,0,0,0,0,0,0,0,0,0,0,0,0,0,0,0,0,0],"id":17,"left_children":[1,3,5,7,9,11,13,-1,15,17,19,21,23,25,27,-1,-1,-1,-1,-1,-1,-1,-1,-1,-1,-1,-1,-1,-1],"loss_changes":[1.3960337E3,5.556263E2,2.0499933E2,8.4293945E1,4.314308E2,2.0019507E2,7.843799E1,0E0,3.316748E1,3.0670624E2,6.723367E1,1.1173624E2,2.1518127E1,3.629843E1,3.1305359E1,0E0,0E0,0E0,0E0,0E0,0E0,0E0,0E0,0E0,0E0,0E0,0E0,0E0,0E0],"parents":[2147483647,0,0,1,1,2,2,3,3,4,4,5,5,6,6,8,8,9,9,10,10,11,11,12,12,13,13,14,14],"right_children":[2,4,6,8,10,12,14,-1,16,18,20,22,24,26,28,-1,-1,-1,-1,-1,-1,-1,-1,-1,-1,-1,-1,-1,-1],"split_conditions":[6.788302E-1,-1.2321973E0,7.504074E-1,-1.9966083E0,1.0205505E0,8.629101E-1,-5.2524483E-1,-1.0125775E0,-8.8737977E-1,-2.4134269E-2,1.5249491E0,-2.8907237E0,-7.6822984E-1,-1.5016966E0,1.8254467E0,-4.5482913E-1,-1.9887657E-1,-2.279198E-1,-2.347797E-4,1.3715078E-1,4.555997E-1,-4.1089422E-1,1.3658802E-1,1.1440607E-1,5.36385E-1,-2.6678085E-2,3.406335E-1,4.4486806E-1,7.740957E-1],"split_indices":[4,4,7,4,10,10,11,0,6,7,7,12,13,10,4,0,0,0,0,0,0,0,0,0,0,0,0,0,0],"split_type":[0,0,0,0,0,0,0,0,0,0,0,0,0,0,0,0,0,0,0,0,0,0,0,0,0,0,0,0,0],"sum_hessian":[4.6E2,3.34E2,1.26E2,3.9E1,2.95E2,8.2E1,4.4E1,2E0,3.7E1,2.36E2,5.9E1,6.6E1,1.6E1,2E1,2.4E1,2.8E1,9E0,1.22E2,1.14E2,5.2E1,7E0,3E0,6.3E1,2E0,1.4E1,3E0,1.7E1,1.6E1,8E0],"tree_param":{"num_deleted":"0","num_feature":"27","num_nodes":"29","size_leaf_vector":"1"}},{"base_weights":[1.4544191E-2,-1.6816837E0,1.4909589E0,-4.790705E0,-1.0916374E0,8.821803E-1,3.996475E0,-6.9639854E0,-3.7297647E0,-1.8623453E0,7.218581E-1,-6.033918E-1,1.7408428E0,1.0395864E0,4.847453E0,-7.4175435E-1,-1.4409828E-1,-4.0109703E-1,-1.8027496E-1,-2.3396145E-1,5.435694E-2,3.7340637E-2,4.1316938E-1,-1.5833789E-1,8.0702186E-2,1.3364996E-1,4.9090067E-1,-1.5258789E-2,3.4620818E-1,4.0273482E-1,6.951408E-1],"categories":[],"categories_nodes":[],"categories_segments":[],"categories_sizes":[],"default_left":[0,0,0,0,0,0,0,0,0,0,0,0,0,0,0,0,0,0,0,0,0,0,0,0,0,0,0,0,0,0,0],"id":18,"left_children":[1,3,5,7,9,11,13,15,17,19,21,23,25,27,29,-1,-1,-1,-1,-1,-1,-1,-1,-1,-1,-1,-1,-1,-1,-1,-1],"loss_changes":[1.157006E3,3.8918054E2,3.7322467E2,5.2420532E1,2.5572127E2,2.5617145E2,1.1574048E2,1.436145E1,6.3164062E0,1.4825015E2,6.380617E1,1.0355966E2,1.5612933E2,3.5184715E1,3.5846436E1,0E0,0E0,0E0,0E0,0E0,0E0,0E0,0E0,0E0,0E0,0E0,0E0,0E0,0E0,0E0,0E0],"parents":[2147483647,0,0,1,1,2,2,3,3,4,4,5,5,6,6,7,7,8,8,9,9,10,10,11,11,12,12,13,13,14,14],"right_children":[2,4,6,8,10,12,14,16,18,20,22,24,26,28,30,-1,-1,-1,-1,-1,-1,-1,-1,-1,-1,-1,-1,-1,-1,-1,-1],"split_conditions":[-8.5580796E-2,-8.711348E-1,1.2667685E0,-9.914651E-1,2.3404628E-1,-3.9821348E-1,-1.0287752E0,7.314928E-1,8.07686E-1,1.4934719E0,2.1240337E0,8.6993295E-1,1.4934719E0,2.5576713E0,1.8254467E0,-7.4175435E-1,-1.4409828E-1,-4.0109703E-1,-1.8027496E-1,-2.3396145E-1,5.435694E-2,3.7340637E-2,4.1316938E-1,-1.5833789E-1,8.0702186E-2,1.3364996E-1,4.9090067E-1,-1.5258789E-2,3.4620818E-1,4.0273482E-1,6.951408E-1],"split_indices":[4,10,7,9,7,10,10,17,5,10,10,4,10,7,4,0,0,0,0,0,0,0,0,0,0,0,0,0,0,0,0],"split_type":[0,0,0,0,0,0,0,0,0,0,0,0,0,0,0,0,0,0,0,0,0,0,0,0,0,0,0,0,0,0,0],"sum_hessian":[4.6E2,2.14E2,2.46E2,3.3E1,1.81E2,1.99E2,4.7E1,9E0,2.4E1,1.27E2,5.4E1,7.3E1,1.26E2,1.1E1,3.6E1,8E0,1E0,2E1,4E0,1.06E2,2.1E1,5E1,4E0,4.3E1,3E1,1.13E2,1.3E1,8E0,3E0,2.8E1,8E0],"tree_param":{"num_deleted":"0","num_feature":"27","num_nodes":"31","size_leaf_vector":"1"}},{"base_weights":[1.47808185E-2,-1.0231857E0,2.070529E0,-2.8407154E0,-2.4431579E-1,1.5697258E0,4.738674E0,-7.432635E0,-2.4913795E0,-2.6415808E0,2.4981266E-1,-2.540262E-1,2.2303994E0,1.7778473E0,5.6268473E0,-8.0677444E-1,-2.1285439E-1,-3.5731253E-1,-1.5795536E-1,-4.8206314E-1,-1.7690061E-1,-1.262317E-1,9.428899E-2,-2.1514075E-1,9.119462E-2,7.619274E-2,2.8152588E-1,2.9558564E-2,1.9756266E-1,2.003535E-1,5.9545404E-1],"categories":[],"categories_nodes":[],"categories_segments":[],"categories_sizes":[],"default_left":[0,0,0,0,0,0,0,0,0,0,0,0,0,0,0,0,0,0,0,0,0,0,0,0,0,0,0,0,0,0,0],"id":19,"left_children":[1,3,5,7,9,11,13,15,17,19,21,23,25,27,29,-1,-1,-1,-1,-1,-1,-1,-1,-1,-1,-1,-1,-1,-1,-1,-1],"loss_changes":[9.857993E2,4.3390103E2,1.9967499E2,1.2906189E2,2.5652414E2,1.5961401E2,5.3109802E1,3.0395203E0,8.016968E1,6.1823486E1,1.8983429E2,8.160455E1,8.116339E1,1.4681587E0,9.441895E0,0E0,0E0,0E0,0E0,0E0,0E0,0E0,0E0,0E0,0E0,0E0,0E0,0E0,0E0,0E0,0E0],"parents":[2147483647,0,0,1,1,2,2,3,3,4,4,5,5,6,6,7,7,8,8,9,9,10,10,11,11,12,12,13,13,14,14],"right_children":[2,4,6,8,10,12,14,16,18,20,22,24,26,28,30,-1,-1,-1,-1,-1,-1,-1,-1,-1,-1,-1,-1,-1,-1,-1,-1],"split_conditions":[4.8772746E-1,-5.4049534E-1,1.8254467E0,-1.8055055E0,-8.711348E-1,-7.1349436E-1,-1.0287752E0,-4.0165216E-1,-8.2932584E-2,-1.3440561E0,-6.5888906E-1,2.3404628E-1,-2.823148E-1,-3.8734183E-1,-3.4255216E-1,-8.0677444E-1,-2.1285439E-1,-3.5731253E-1,-1.5795536E-1,-4.8206314E-1,-1.7690061E-1,-1.262317E-1,9.428899E-2,-2.1514075E-1,9.119462E-2,7.619274E-2,2.8152588E-1,2.9558564E-2,1.9756266E-1,2.003535E-1,5.9545404E-1],"split_indices":[4,7,4,4,10,10,10,5,10,10,4,7,7,1,21,0,0,0,0,0,0,0,0,0,0,0,0,0,0,0,0],"split_type":[0,0,0,0,0,0,0,0,0,0,0,0,0,0,0,0,0,0,0,0,0,0,0,0,0,0,0,0,0,0,0],"sum_hessian":[4.6E2,3.06E2,1.54E2,9.1E1,2.15E2,1.31E2,2.3E1,5E0,8.6E1,3.6E1,1.79E2,3.5E1,9.6E1,6E0,1.7E1,4E0,1E0,3.8E1,4.8E1,9E0,2.7E1,5.6E1,1.23E2,1.3E1,2.2E1,2.8E1,6.8E1,1E0,5E0,2E0,1.5E1],"tree_param":{"num_deleted":"0","num_feature":"27","num_nodes":"31","size_leaf_vector":"1"}},{"base_weights":[1.1200166E-2,-1.7137511E0,1.0437447E0,-4.278249E0,-1.2101916E0,-1.6903263E-1,1.9955456E0,-8.162532E-1,-3.6655142E0,-3.0866444E0,-6.3488555E-1,-4.0646526E-1,1.2454745E-1,1.3660986E0,3.3781848E0,-2.536539E-1,-4.3243265E-1,-3.7714282E-1,-1.8389942E-1,-9.547622E-2,1.899147E-1,-7.251995E-2,1.1765566E-1,9.818535E-2,4.013129E-1,1.2837966E-1,4.0793538E-1],"categories":[],"categories_nodes":[],"categories_segments":[],"categories_sizes":[],"default_left":[0,0,0,0,0,0,0,0,0,0,0,0,0,0,0,0,0,0,0,0,0,0,0,0,0,0,0],"id":20,"left_children":[1,3,5,7,9,11,13,-1,15,17,19,-1,21,23,25,-1,-1,-1,-1,-1,-1,-1,-1,-1,-1,-1,-1],"loss_changes":[8.228708E2,2.1823074E2,3.3393652E2,3.672101E1,1.5565239E2,1.468968E2,1.3637335E2,0E0,8.369568E0,2.2112946E1,9.340852E1,0E0,1.0812622E2,1.1099295E2,6.81889E1,0E0,0E0,0E0,0E0,0E0,0E0,0E0,0E0,0E0,0E0,0E0,0E0],"parents":[2147483647,0,0,1,1,2,2,3,3,4,4,5,5,6,6,8,8,9,9,10,10,12,12,13,13,14,14],"right_children":[2,4,6,8,10,12,14,-1,16,18,20,-1,22,24,26,-1,-1,-1,-1,-1,-1,-1,-1,-1,-1,-1,-1],"split_conditions":[-2.7668354E-1,-8.711348E-1,-2.4250453E-2,-1.6144028E0,-1.2321973E0,-1.3440561E0,1.2667685E0,-8.162532E-1,-4.0453835E-3,-8.2023877E-1,1.9663932E0,-4.0646526E-1,4.8772746E-1,1.2992302E0,-8.711348E-1,-2.536539E-1,-4.3243265E-1,-3.7714282E-1,-1.8389942E-1,-9.547622E-2,1.899147E-1,-7.251995E-2,1.1765566E-1,9.818535E-2,4.013129E-1,1.2837966E-1,4.0793538E-1],"split_indices":[4,10,9,4,4,10,7,0,2,16,10,0,4,11,10,0,0,0,0,0,0,0,0,0,0,0,0],"split_type":[0,0,0,0,0,0,0,0,0,0,0,0,0,0,0,0,0,0,0,0,0,0,0,0,0,0,0],"sum_hessian":[4.6E2,1.72E2,2.88E2,2.7E1,1.45E2,1.27E2,1.61E2,2E0,2.5E1,3.3E1,1.12E2,8E0,1.19E2,1.12E2,4.9E1,1.1E1,1.4E1,2E1,1.3E1,1E2,1.2E1,6.6E1,5.3E1,9.9E1,1.3E1,1.3E1,3.6E1],"tree_param":{"num_deleted":"0","num_feature":"27","num_nodes":"27","size_leaf_vector":"1"}},{"base_weights":[7.2722696E-3,-7.541758E-1,2.015759E0,-2.2707126E0,-1.2655056E-1,1.5765849E0,4.587614E0,-6.471836E0,-1.9752562E0,-1.2803098E0,6.3548887E-1,-5.6393015E-1,2.0297027E0,2.267165E0,5.558908E0,-7.032785E-1,-1.8335457E-1,-2.3462896E-1,4.8851013E-2,-2.2220643E-1,-1.3822937E-2,-2.0352745E-1,9.160629E-2,-2.3207073E-1,5.6054275E-2,1.47333145E-2,2.524393E-1,6.399079E-2,2.4317233E-1,6.0148305E-1,2.1861981E-1],"categories":[],"categories_nodes":[],"categories_segments":[],"categories_sizes":[],"default_left":[0,0,0,0,0,0,0,0,0,0,0,0,0,0,0,0,0,0,0,0,0,0,0,0,0,0,0,0,0,0,0],"id":21,"left_children":[1,3,5,7,9,11,13,15,17,19,21,23,25,27,29,-1,-1,-1,-1,-1,-1,-1,-1,-1,-1,-1,-1,-1,-1,-1,-1],"loss_changes":[7.065545E2,3.1857126E2,1.362127E2,1.0885895E2,2.1006561E2,1.0783423E2,2.7966095E1,2.7161255E0,8.616116E1,1.0187097E2,1.097704E2,4.0809822E1,8.436633E1,3.1837082E-1,5.302704E0,0E0,0E0,0E0,0E0,0E0,0E0,0E0,0E0,0E0,0E0,0E0,0E0,0E0,0E0,0E0,0E0],"parents":[2147483647,0,0,1,1,2,2,3,3,4,4,5,5,6,6,7,7,8,8,9,9,10,10,11,11,12,12,13,13,14,14],"right_children":[2,4,6,8,10,12,14,16,18,20,22,24,26,28,30,-1,-1,-1,-1,-1,-1,-1,-1,-1,-1,-1,-1,-1,-1,-1,-1],"split_conditions":[6.788302E-1,-5.4049534E-1,2.0165493E0,-1.8055055E0,-2.4057302E-1,-8.711348E-1,-8.711348E-1,-4.0165216E-1,1.4934719E0,-8.5580796E-2,-1.2321973E0,-2.1769337E-1,-5.4049534E-1,-1.659337E0,1.7449213E0,-7.032785E-1,-1.8335457E-1,-2.3462896E-1,4.8851013E-2,-2.2220643E-1,-1.3822937E-2,-2.0352745E-1,9.160629E-2,-2.3207073E-1,5.6054275E-2,1.47333145E-2,2.524393E-1,6.399079E-2,2.4317233E-1,6.0148305E-1,2.1861981E-1],"split_indices":[4,7,4,4,10,10,10,5,10,4,4,9,7,10,1,0,0,0,0,0,0,0,0,0,0,0,0,0,0,0,0],"split_type":[0,0,0,0,0,0,0,0,0,0,0,0,0,0,0,0,0,0,0,0,0,0,0,0,0,0,0,0,0,0,0],"sum_hessian":[4.6E2,3.34E2,1.26E2,9.7E1,2.37E2,1.09E2,1.7E1,5E0,9.2E1,9.4E1,1.43E2,1.9E1,9E1,6E0,1.1E1,4E0,1E0,8E1,1.2E1,5.1E1,4.3E1,1.3E1,1.3E2,7E0,1.2E1,1.9E1,7.1E1,1E0,5E0,9E0,2E0],"tree_param":{"num_deleted":"0","num_feature":"27","num_nodes":"31","size_leaf_vector":"1"}},{"base_weights":[6.1064614E-3,-1.4455003E0,8.7504023E-1,-3.4486682E0,-9.4869155E-1,1.263898E-1,2.0399613E0,-6.339387E-1,-2.731669E0,-2.542845E0,-4.7197962E-1,-4.381972E-1,2.135395E0,1.7271783E0,4.783296E0,-2.982119E-1,-4.2082597E-2,-2.837784E-1,-3.826172E-2,-8.169053E-2,1.9269377E-1,-3.213276E-1,-2.2135884E-2,1.3721019E-1,3.7384626E-1,1.0594274E-1,3.0511603E-1,2.5185058E-1,5.717675E-1],"categories":[],"categories_nodes":[],"categories_segments":[],"categories_sizes":[],"default_left":[0,0,0,0,0,0,0,0,0,0,0,0,0,0,0,0,0,0,0,0,0,0,0,0,0,0,0,0,0],"id":22,"left_children":[1,3,5,7,9,11,13,-1,15,17,19,21,23,25,27,-1,-1,-1,-1,-1,-1,-1,-1,-1,-1,-1,-1,-1,-1],"loss_changes":[5.827472E2,1.6889633E2,2.5178445E2,5.31528E1,1.0519311E2,2.0169942E2,8.8700165E1,0E0,1.5528824E1,1.9302551E1,9.176596E1,8.293105E1,4.2591248E1,8.7828766E1,8.877899E0,0E0,0E0,0E0,0E0,0E0,0E0,0E0,0E0,0E0,0E0,0E0,0E0,0E0,0E0],"parents":[2147483647,0,0,1,1,2,2,3,3,4,4,5,5,6,6,8,8,9,9,10,10,11,11,12,12,13,13,14,14],"right_children":[2,4,6,8,10,12,14,-1,16,18,20,22,24,26,28,-1,-1,-1,-1,-1,-1,-1,-1,-1,-1,-1,-1,-1,-1],"split_conditions":[-2.7668354E-1,-6.555645E-1,4.9222684E-1,-1.1552128E0,-1.2321973E0,8.629101E-1,2.0165493E0,-6.339387E-1,4.0198927E0,1.4295498E0,1.008588E0,-1.3440561E0,1.3454292E0,2.3234831E-1,-6.555645E-1,-2.982119E-1,-4.2082597E-2,-2.837784E-1,-3.826172E-2,-8.169053E-2,1.9269377E-1,-3.213276E-1,-2.2135884E-2,1.3721019E-1,3.7384626E-1,1.0594274E-1,3.0511603E-1,2.5185058E-1,5.717675E-1],"split_indices":[4,11,7,12,4,10,4,0,2,11,7,10,6,10,11,0,0,0,0,0,0,0,0,0,0,0,0,0,0],"split_type":[0,0,0,0,0,0,0,0,0,0,0,0,0,0,0,0,0,0,0,0,0,0,0,0,0,0,0,0,0],"sum_hessian":[4.6E2,1.72E2,2.88E2,3.3E1,1.39E2,1.76E2,1.12E2,5E0,2.8E1,3.1E1,1.08E2,1.38E2,3.8E1,1.02E2,1E1,2.5E1,3E0,2.7E1,4E0,9.5E1,1.3E1,9E0,1.29E2,2.7E1,1.1E1,6.9E1,3.3E1,4E0,6E0],"tree_param":{"num_deleted":"0","num_feature":"27","num_nodes":"29","size_leaf_vector":"1"}},{"base_weights":[5.9655244E-3,-6.415765E-1,1.7140019E0,-2.7460685E0,-2.9710352E-1,1.3378798E0,3.9173038E0,-6.506338E-1,-2.341815E0,-5.4985225E-1,2.2806952E0,-4.9950942E-1,1.7269995E0,2.178771E-1,4.8255725E0,-2.5376016E-1,1.17979944E-1,-7.785889E-2,1.5739138E-1,-1.0541306E-1,2.6025194E-1,-1.3554639E-1,1.283758E-1,1.0679855E-2,2.1530692E-1,5.256848E-1,1.923223E-1],"categories":[],"categories_nodes":[],"categories_segments":[],"categories_sizes":[],"default_left":[0,0,0,0,0,0,0,0,0,0,0,0,0,0,0,0,0,0,0,0,0,0,0,0,0,0,0],"id":23,"left_children":[1,3,5,7,9,11,13,-1,15,17,19,21,23,-1,25,-1,-1,-1,-1,-1,-1,-1,-1,-1,-1,-1,-1],"loss_changes":[5.1097736E2,2.4203923E2,1.0000537E2,5.620816E1,1.8954774E2,7.950876E1,1.790918E1,0E0,3.333116E1,1.2947218E2,3.0647308E1,3.2268E1,6.258905E1,0E0,3.658722E0,0E0,0E0,0E0,0E0,0E0,0E0,0E0,0E0,0E0,0E0,0E0,0E0],"parents":[2147483647,0,0,1,1,2,2,3,3,4,4,5,5,6,6,8,8,9,9,10,10,11,11,12,12,14,14],"right_children":[2,4,6,8,10,12,14,-1,16,18,20,22,24,-1,26,-1,-1,-1,-1,-1,-1,-1,-1,-1,-1,-1,-1],"split_conditions":[6.788302E-1,-1.1978042E0,2.0165493E0,-1.4374824E0,1.6511123E0,-8.711348E-1,-6.555645E-1,-6.506338E-1,2.1240337E0,1.2667685E0,-2.2828448E0,1.0038431E0,-5.4049534E-1,2.178771E-1,1.7449213E0,-2.5376016E-1,1.17979944E-1,-7.785889E-2,1.5739138E-1,-1.0541306E-1,2.6025194E-1,-1.3554639E-1,1.283758E-1,1.0679855E-2,2.1530692E-1,5.256848E-1,1.923223E-1],"split_indices":[4,9,4,11,10,10,11,0,10,7,5,8,7,0,1,0,0,0,0,0,0,0,0,0,0,0,0],"split_type":[0,0,0,0,0,0,0,0,0,0,0,0,0,0,0,0,0,0,0,0,0,0,0,0,0,0,0],"sum_hessian":[4.6E2,3.34E2,1.26E2,4.6E1,2.88E2,1.09E2,1.7E1,3E0,4.3E1,2.63E2,2.5E1,1.9E1,9E1,7E0,1E1,4.1E1,2E0,2.38E2,2.5E1,2E0,2.3E1,1.3E1,6E0,1.9E1,7.1E1,8E0,2E0],"tree_param":{"num_deleted":"0","num_feature":"27","num_nodes":"27","size_leaf_vector":"1"}},{"base_weights":[6.6757035E-3,-1.2295387E0,7.466702E-1,-3.374141E0,-8.6145407E-1,1.13969535E-1,1.7311069E0,-7.1722436E-1,-2.7320344E0,-1.5200701E0,1.9809987E-1,-3.7145612E-1,1.8411541E0,6.7187595E-1,2.2802708E0,-2.9229715E-1,-4.8479717E-2,-2.6703253E-1,-1.09795146E-1,-6.539465E-2,9.6129976E-2,-2.860509E-1,-1.7713318E-2,1.165232E-1,3.2648763E-1,3.9505113E-2,2.5306398E-1,2.0449363E-1,5.1188993E-1],"categories":[],"categories_nodes":[],"categories_segments":[],"categories_sizes":[],"default_left":[0,0,0,0,0,0,0,0,0,0,0,0,0,0,0,0,0,0,0,0,0,0,0,0,0,0,0,0,0],"id":24,"left_children":[1,3,5,7,9,11,13,-1,15,17,19,21,23,25,27,-1,-1,-1,-1,-1,-1,-1,-1,-1,-1,-1,-1,-1,-1],"loss_changes":[4.2263705E2,1.3365869E2,1.7980746E2,4.1374817E1,1.0427916E2,1.4908418E2,6.4199036E1,0E0,8.451813E0,4.1738205E1,3.8344975E1,6.672484E1,3.372635E1,1.9582346E1,3.8966187E1,0E0,0E0,0E0,0E0,0E0,0E0,0E0,0E0,0E0,0E0,0E0,0E0,0E0,0E0],"parents":[2147483647,0,0,1,1,2,2,3,3,4,4,5,5,6,6,8,8,9,9,10,10,11,11,12,12,13,13,14,14],"right_children":[2,4,6,8,10,12,14,-1,16,18,20,22,24,26,28,-1,-1,-1,-1,-1,-1,-1,-1,-1,-1,-1,-1,-1,-1],"split_conditions":[-2.7668354E-1,-1.4233E0,4.9222684E-1,-1.9966083E0,3.8998875E-1,8.629101E-1,2.3581892E-1,-7.1722436E-1,1.4934719E0,-8.711348E-1,1.0729203E-1,-1.3440561E0,1.6511123E0,1.0610358E0,2.5898578E0,-2.9229715E-1,-4.8479717E-2,-2.6703253E-1,-1.09795146E-1,-6.539465E-2,9.6129976E-2,-2.860509E-1,-1.7713318E-2,1.165232E-1,3.2648763E-1,3.9505113E-2,2.5306398E-1,2.0449363E-1,5.1188993E-1],"split_indices":[4,4,7,4,10,10,21,0,10,10,21,10,10,4,4,0,0,0,0,0,0,0,0,0,0,0,0,0,0],"split_type":[0,0,0,0,0,0,0,0,0,0,0,0,0,0,0,0,0,0,0,0,0,0,0,0,0,0,0,0,0],"sum_hessian":[4.6E2,1.72E2,2.88E2,2.4E1,1.48E2,1.76E2,1.12E2,2E0,2.2E1,9.1E1,5.7E1,1.38E2,3.8E1,3.9E1,7.3E1,2E1,2E0,2.3E1,6.8E1,2.7E1,3E1,9E0,1.29E2,2.7E1,1.1E1,3.5E1,4E0,6.9E1,4E0],"tree_param":{"num_deleted":"0","num_feature":"27","num_nodes":"29","size_leaf_vector":"1"}},{"base_weights":[5.453362E-3,-5.448236E-1,1.4569284E0,-1.7280436E0,-5.532619E-2,1.126974E0,3.392376E0,-6.6940945E-1,-1.554854E0,-9.484316E-1,5.3425956E-1,7.61635E-1,2.8366692E0,1.9199915E-1,4.1548033E0,-1.7710482E-1,1.04466155E-1,-4.2794418E-1,-7.549868E-2,2.5992481E-2,2.1286999E-1,5.607748E-2,4.1444474E-1,4.516093E-3,3.1624255E-1,4.4907346E-1,1.7620748E-1],"categories":[],"categories_nodes":[],"categories_segments":[],"categories_sizes":[],"default_left":[0,0,0,0,0,0,0,0,0,0,0,0,0,0,0,0,0,0,0,0,0,0,0,0,0,0,0],"id":25,"left_children":[1,3,5,7,9,11,13,-1,15,17,19,21,23,-1,25,-1,-1,-1,-1,-1,-1,-1,-1,-1,-1,-1,-1],"loss_changes":[3.6900055E2,1.9393073E2,7.7280304E1,7.387833E1,1.25828514E2,6.6547516E1,1.222934E1,0E0,5.580211E1,5.7983925E1,6.2433792E1,6.018735E1,1.7134857E1,0E0,9.287262E-1,0E0,0E0,0E0,0E0,0E0,0E0,0E0,0E0,0E0,0E0,0E0,0E0],"parents":[2147483647,0,0,1,1,2,2,3,3,4,4,5,5,6,6,8,8,9,9,10,10,11,11,12,12,14,14],"right_children":[2,4,6,8,10,12,14,-1,16,18,20,22,24,-1,26,-1,-1,-1,-1,-1,-1,-1,-1,-1,-1,-1,-1],"split_conditions":[6.788302E-1,-5.4049534E-1,2.0165493E0,-1.9966083E0,-2.4057302E-1,8.629101E-1,-6.555645E-1,-6.6940945E-1,1.9508284E0,-1.974618E0,1.6511123E0,2.2994907E0,-7.9802215E-1,1.9199915E-1,1.7449213E0,-1.7710482E-1,1.04466155E-1,-4.2794418E-1,-7.549868E-2,2.5992481E-2,2.1286999E-1,5.607748E-2,4.1444474E-1,4.516093E-3,3.1624255E-1,4.4907346E-1,1.7620748E-1],"split_indices":[4,7,4,4,10,10,11,0,11,10,10,7,9,0,1,0,0,0,0,0,0,0,0,0,0,0,0],"split_type":[0,0,0,0,0,0,0,0,0,0,0,0,0,0,0,0,0,0,0,0,0,0,0,0,0,0,0],"sum_hessian":[4.6E2,3.34E2,1.26E2,9.7E1,2.37E2,1.09E2,1.7E1,2E0,9.5E1,9.4E1,1.43E2,9.1E1,1.8E1,7E0,1E1,8.8E1,7E0,4E0,9E1,1.23E2,2E1,8.7E1,4E0,2E0,1.6E1,8E0,2E0],"tree_param":{"num_deleted":"0","num_feature":"27","num_nodes":"27","size_leaf_vector":"1"}},{"base_weights":[6.213753E-3,-1.5215495E0,4.7229344E-1,-5.032884E0,-1.3022333E0,3.464227E-2,1.6314863E0,-6.5172523E-1,-2.6613864E-1,-2.0181925E0,-5.612312E-1,-1.0005054E0,5.856994E-1,3.0348037E-4,1.9781089E0,-2.335706E-1,-9.895341E-2,-1.0069279E-1,1.1915409E-1,-1.3985547E-1,4.62595E-2,2.7586067E-2,2.2050045E-1,-6.953761E-2,2.609026E-1,1.7207621E-1,4.0791342E-1],"categories":[],"categories_nodes":[],"categories_segments":[],"categories_sizes":[],"default_left":[0,0,0,0,0,0,0,0,0,0,0,0,0,0,0,0,0,0,0,0,0,0,0,0,0,0,0],"id":26,"left_children":[1,3,5,7,9,11,13,-1,-1,15,17,19,21,23,25,-1,-1,-1,-1,-1,-1,-1,-1,-1,-1,-1,-1],"loss_changes":[3.28978E2,7.661597E1,1.7953552E2,3.7761383E0,5.3511642E1,1.4775578E2,5.484366E1,0E0,0E0,1.4672607E1,4.1822437E1,5.3061714E1,8.418297E1,3.4481285E1,3.6236145E1,0E0,0E0,0E0,0E0,0E0,0E0,0E0,0E0,0E0,0E0,0E0,0E0],"parents":[2147483647,0,0,1,1,2,2,3,3,4,4,5,5,6,6,9,9,10,10,11,11,12,12,13,13,14,14],"right_children":[2,4,6,8,10,12,14,-1,-1,16,18,20,22,24,26,-1,-1,-1,-1,-1,-1,-1,-1,-1,-1,-1,-1],"split_conditions":[-6.5888906E-1,-1.3440561E0,7.504074E-1,-4.0165216E-1,-6.3970774E-1,-3.9821348E-1,-1.0287752E0,-6.5172523E-1,-2.6613864E-1,-8.499918E-1,1.1689106E0,1.0610358E0,1.4934719E0,2.5576713E0,1.7781417E0,-2.335706E-1,-9.895341E-2,-1.0069279E-1,1.1915409E-1,-1.3985547E-1,4.62595E-2,2.7586067E-2,2.2050045E-1,-6.953761E-2,2.609026E-1,1.7207621E-1,4.0791342E-1],"split_indices":[4,10,7,5,16,10,10,0,0,4,11,4,10,7,21,0,0,0,0,0,0,0,0,0,0,0,0],"split_type":[0,0,0,0,0,0,0,0,0,0,0,0,0,0,0,0,0,0,0,0,0,0,0,0,0,0,0],"sum_hessian":[4.6E2,1.07E2,3.53E2,5E0,1.02E2,2.57E2,9.6E1,2E0,3E0,5.1E1,5.1E1,8.9E1,1.68E2,1.7E1,7.9E1,3.8E1,1.3E1,4.1E1,1E1,7E1,1.9E1,1.42E2,2.6E1,1.4E1,3E0,7.2E1,7E0],"tree_param":{"num_deleted":"0","num_feature":"27","num_nodes":"27","size_leaf_vector":"1"}},{"base_weights":[4.9284236E-3,-5.4247963E-1,1.0891178E0,-1.6052722E0,-8.729723E-2,2.398736E-1,1.6997955E0,-3.2022874E0,-1.1735349E0,-5.782594E-1,6.910988E-1,-1.1371651E0,8.207438E-1,1.3815539E0,3.478491E0,-5.509632E-1,-2.4253082E-1,-1.7664456E-1,-4.2403862E-2,-2.799684E-1,-3.944489E-2,4.4952776E-2,2.6542434E-1,-3.2026482E-1,-5.84277E-2,5.012992E-2,2.9200658E-1,1.1203982E-1,3.2592595E-1,1.8164343E-1,4.2902222E-1],"categories":[],"categories_nodes":[],"categories_segments":[],"categories_sizes":[],"default_left":[0,0,0,0,0,0,0,0,0,0,0,0,0,0,0,0,0,0,0,0,0,0,0,0,0,0,0,0,0,0,0],"id":27,"left_children":[1,3,5,7,9,11,13,15,17,19,21,23,25,27,29,-1,-1,-1,-1,-1,-1,-1,-1,-1,-1,-1,-1,-1,-1,-1,-1],"loss_changes":[2.7419153E2,1.4837555E2,7.997752E1,5.9675186E1,8.2946846E1,5.3725452E1,4.613919E1,2.0699875E1,3.21354E1,5.3202396E1,3.864291E1,2.0968388E1,3.0055174E1,3.459749E1,9.745956E0,0E0,0E0,0E0,0E0,0E0,0E0,0E0,0E0,0E0,0E0,0E0,0E0,0E0,0E0,0E0,0E0],"parents":[2147483647,0,0,1,1,2,2,3,3,4,4,5,5,6,6,7,7,8,8,9,9,10,10,11,11,12,12,13,13,14,14],"right_children":[2,4,6,8,10,12,14,16,18,20,22,24,26,28,30,-1,-1,-1,-1,-1,-1,-1,-1,-1,-1,-1,-1,-1,-1,-1,-1],"split_conditions":[4.8772746E-1,-5.4049534E-1,-3.9821348E-1,-7.1349436E-1,3.8998875E-1,-2.4134269E-2,1.8254467E0,-1.4055299E0,-6.3970774E-1,-1.3440561E0,1.5249491E0,-1.3440561E0,2.2994907E0,1.4934719E0,9.420569E-1,-5.509632E-1,-2.4253082E-1,-1.7664456E-1,-4.2403862E-2,-2.799684E-1,-3.944489E-2,4.4952776E-2,2.6542434E-1,-3.2026482E-1,-5.84277E-2,5.012992E-2,2.9200658E-1,1.1203982E-1,3.2592595E-1,1.8164343E-1,4.2902222E-1],"split_indices":[4,7,10,10,10,7,4,25,16,10,7,10,7,10,5,0,0,0,0,0,0,0,0,0,0,0,0,0,0,0,0],"split_type":[0,0,0,0,0,0,0,0,0,0,0,0,0,0,0,0,0,0,0,0,0,0,0,0,0,0,0,0,0,0,0],"sum_hessian":[4.6E2,3.06E2,1.54E2,9.1E1,2.15E2,6.5E1,8.9E1,1.8E1,7.3E1,1.32E2,8.3E1,1.9E1,4.6E1,7.7E1,1.2E1,3E0,1.5E1,4E1,3.3E1,9E0,1.23E2,7.5E1,8E0,3E0,1.6E1,4.1E1,5E0,6.9E1,8E0,5E0,7E0],"tree_param":{"num_deleted":"0","num_feature":"27","num_nodes":"31","size_leaf_vector":"1"}},{"base_weights":[4.414523E-3,-1.309804E0,4.0535006E-1,-3.1328788E0,-9.820727E-1,-5.8392294E-2,1.2246013E0,-5.7101846E-1,-2.3568218E0,-1.1624053E0,1.399499E0,-9.3130153E-1,3.8712034E-1,3.0247152E-1,1.6875321E0,-2.6599643E-1,-3.5864513E-2,-1.8500952E-1,-7.078893E-2,5.0954055E-2,1.9395828E-1,-2.6732224E-1,-6.6144116E-2,-1.0395402E-1,6.384852E-2,-2.7120132E-2,1.323349E-1,1.1520155E-1,2.538481E-1],"categories":[],"categories_nodes":[],"categories_segments":[],"categories_sizes":[],"default_left":[0,0,0,0,0,0,0,0,0,0,0,0,0,0,0,0,0,0,0,0,0,0,0,0,0,0,0,0,0],"id":28,"left_children":[1,3,5,7,9,11,13,-1,15,17,19,21,23,25,27,-1,-1,-1,-1,-1,-1,-1,-1,-1,-1,-1,-1,-1,-1],"loss_changes":[2.434396E2,6.145096E1,1.3456372E2,1.8544296E1,4.1567947E1,8.863903E1,5.4130478E1,0E0,7.5262604E0,2.5883583E1,2.3762693E0,3.4427635E1,5.4814198E1,2.6127478E1,3.5809906E1,0E0,0E0,0E0,0E0,0E0,0E0,0E0,0E0,0E0,0E0,0E0,0E0,0E0,0E0],"parents":[2147483647,0,0,1,1,2,2,3,3,4,4,5,5,6,6,8,8,9,9,10,10,11,11,12,12,13,13,14,14],"right_children":[2,4,6,8,10,12,14,-1,16,18,20,22,24,26,28,-1,-1,-1,-1,-1,-1,-1,-1,-1,-1,-1,-1,-1,-1],"split_conditions":[-6.5888906E-1,-1.6144028E0,4.9222684E-1,-1.9966083E0,2.1240337E0,-3.9821348E-1,-5.558539E-1,-5.7101846E-1,1.4934719E0,-2.4057302E-1,4.632975E-1,-1.3071628E0,-1.0568565E0,1.2521385E0,1.2667685E0,-2.6599643E-1,-3.5864513E-2,-1.8500952E-1,-7.078893E-2,5.0954055E-2,1.9395828E-1,-2.6732224E-1,-6.6144116E-2,-1.0395402E-1,6.384852E-2,-2.7120132E-2,1.323349E-1,1.1520155E-1,2.538481E-1],"split_indices":[4,4,7,4,10,10,10,0,10,10,12,11,7,4,7,0,0,0,0,0,0,0,0,0,0,0,0,0,0],"split_type":[0,0,0,0,0,0,0,0,0,0,0,0,0,0,0,0,0,0,0,0,0,0,0,0,0,0,0,0,0],"sum_hessian":[4.6E2,1.07E2,3.53E2,1.5E1,9.2E1,2.26E2,1.27E2,2E0,1.3E1,8.6E1,6E0,7.6E1,1.5E2,4.3E1,8.4E1,1.1E1,2E0,3.3E1,5.3E1,3E0,3E0,9E0,6.7E1,2.2E1,1.28E2,2.8E1,1.5E1,5.3E1,3.1E1],"tree_param":{"num_deleted":"0","num_feature":"27","num_nodes":"29","size_leaf_vector":"1"}},{"base_weights":[2.274271E-3,-4.0643498E-1,1.0803477E0,-2.0463202E0,-1.9595821E-1,8.118142E-1,2.6613665E0,-2.9138913E0,-1.0253866E0,-3.65573E-1,1.4526691E0,-5.222435E-1,1.0960927E0,1.9562748E-1,3.7455037E-1,-5.599627E-1,-2.3043858E-1,-1.7045823E-1,-2.4365235E-2,-1.3288394E-1,-1.1974251E-2,7.194557E-2,2.5204122E-1,-8.776398E-2,1.7842154E-1,-7.199059E-3,1.4053367E-1],"categories":[],"categories_nodes":[],"categories_segments":[],"categories_sizes":[],"default_left":[0,0,0,0,0,0,0,0,0,0,0,0,0,0,0,0,0,0,0,0,0,0,0,0,0,0,0],"id":29,"left_children":[1,3,5,7,9,11,13,15,17,19,21,23,25,-1,-1,-1,-1,-1,-1,-1,-1,-1,-1,-1,-1,-1,-1],"loss_changes":[2.0356425E2,1.1522685E2,5.1758133E1,3.0669968E1,8.386127E1,4.2289246E1,6.432266E0,1.9835709E1,9.672733E0,6.401373E1,2.0107414E1,1.7960037E1,3.2972458E1,0E0,0E0,0E0,0E0,0E0,0E0,0E0,0E0,0E0,0E0,0E0,0E0,0E0,0E0],"parents":[2147483647,0,0,1,1,2,2,3,3,4,4,5,5,6,6,7,7,8,8,9,9,10,10,11,11,12,12],"right_children":[2,4,6,8,10,12,14,16,18,20,22,24,26,-1,-1,-1,-1,-1,-1,-1,-1,-1,-1,-1,-1,-1,-1],"split_conditions":[6.788302E-1,-1.3009738E0,2.0165493E0,7.4707866E-2,1.6511123E0,-8.711348E-1,2.5898578E0,-1.4055299E0,-4.8398528E-1,-8.499918E-1,-2.7668354E-1,2.2487886E0,-5.4049534E-1,1.9562748E-1,3.7455037E-1,-5.599627E-1,-2.3043858E-1,-1.7045823E-1,-2.4365235E-2,-1.3288394E-1,-1.1974251E-2,7.194557E-2,2.5204122E-1,-8.776398E-2,1.7842154E-1,-7.199059E-3,1.4053367E-1],"split_indices":[4,9,4,10,10,10,4,25,8,4,4,16,7,0,0,0,0,0,0,0,0,0,0,0,0,0,0],"split_type":[0,0,0,0,0,0,0,0,0,0,0,0,0,0,0,0,0,0,0,0,0,0,0,0,0,0,0],"sum_hessian":[4.6E2,3.34E2,1.26E2,3.7E1,2.97E2,1.09E2,1.7E1,1.9E1,1.8E1,2.7E2,2.7E1,1.9E1,9E1,1.2E1,5E0,2E0,1.7E1,9E0,9E0,5.4E1,2.16E2,1.7E1,1E1,1.7E1,2E0,1.9E1,7.1E1],"tree_param":{"num_deleted":"0","num_feature":"27","num_nodes":"27","size_leaf_vector":"1"}},{"base_weights":[2.0187444E-3,-6.4070874E-1,6.0693026E-1,-3.9774275E0,-5.147435E-1,3.216883E-1,1.7905122E0,-5.340086E-1,-2.0918153E-1,-1.2803408E0,-1.1773697E-1,-8.70007E-1,6.099109E-1,1.3821847E0,3.8680246E-1,-2.9526463E-1,-1.0615529E-1,-2.5925433E-2,1.4605586E-1,-1.4683963E-1,-4.444392E-3,4.298668E-2,1.8854992E-1,-2.3264095E-2,1.6739964E-1],"categories":[],"categories_nodes":[],"categories_segments":[],"categories_sizes":[],"default_left":[0,0,0,0,0,0,0,0,0,0,0,0,0,0,0,0,0,0,0,0,0,0,0,0,0],"id":30,"left_children":[1,3,5,7,9,11,13,-1,-1,15,17,19,21,23,-1,-1,-1,-1,-1,-1,-1,-1,-1,-1,-1],"loss_changes":[1.7962256E2,9.210221E1,7.977456E1,9.385086E0,6.580578E1,6.6821014E1,3.3675705E1,0E0,0E0,2.394072E1,3.254195E1,1.8707052E1,3.5016792E1,1.9238441E1,0E0,0E0,0E0,0E0,0E0,0E0,0E0,0E0,0E0,0E0,0E0],"parents":[2147483647,0,0,1,1,2,2,3,3,4,4,5,5,6,6,9,9,10,10,11,11,12,12,13,13],"right_children":[2,4,6,8,10,12,14,-1,-1,16,18,20,22,24,-1,-1,-1,-1,-1,-1,-1,-1,-1,-1,-1],"split_conditions":[-2.4134269E-2,-1.3071628E0,1.5249491E0,-1.5016966E0,-4.7107905E-1,-8.711348E-1,2.2211573E0,-5.340086E-1,-2.0918153E-1,-1.5732175E0,1.4432412E0,-3.146966E-2,1.4295498E0,-1.3071628E0,3.8680246E-1,-2.9526463E-1,-1.0615529E-1,-2.5925433E-2,1.4605586E-1,-1.4683963E-1,-4.444392E-3,4.298668E-2,1.8854992E-1,-2.3264095E-2,1.6739964E-1],"split_indices":[7,11,7,10,21,10,8,0,0,7,4,6,11,11,0,0,0,0,0,0,0,0,0,0,0],"split_type":[0,0,0,0,0,0,0,0,0,0,0,0,0,0,0,0,0,0,0,0,0,0,0,0,0],"sum_hessian":[4.6E2,2.23E2,2.37E2,7E0,2.16E2,1.92E2,4.5E1,3E0,4E0,7.3E1,1.43E2,3.7E1,1.55E2,3.9E1,6E0,7E0,6.6E1,1.32E2,1.1E1,2.1E1,1.6E1,1.37E2,1.8E1,6E0,3.3E1],"tree_param":{"num_deleted":"0","num_feature":"27","num_nodes":"25","size_leaf_vector":"1"}},{"base_weights":[9.2110457E-4,-7.5076383E-1,4.5088848E-1,-2.6475725E0,-5.539303E-1,-1.9392946E-1,8.5408354E-1,-4.8851678E-1,-1.9789755E0,-9.660163E-1,1.17190376E-1,-1.0355297E0,3.0664998E-1,-8.009702E-1,1.0224899E0,-2.1487398E-1,1.13979345E-2,-1.9478558E-1,-7.052212E-2,-8.468996E-3,1.4652339E-1,-2.4391277E-1,-7.79932E-2,1.1882304E-2,2.7622008E-1,-1.1290818E-1,5.4766275E-2,8.763549E-2,2.7761486E-1],"categories":[],"categories_nodes":[],"categories_segments":[],"categories_sizes":[],"default_left":[0,0,0,0,0,0,0,0,0,0,0,0,0,0,0,0,0,0,0,0,0,0,0,0,0,0,0,0,0],"id":31,"left_children":[1,3,5,7,9,11,13,-1,15,17,19,21,23,25,27,-1,-1,-1,-1,-1,-1,-1,-1,-1,-1,-1,-1,-1,-1],"loss_changes":[1.5626424E2,6.3123947E1,7.530202E1,1.4269157E1,4.3809597E1,4.750178E1,5.043141E1,0E0,5.2192345E0,2.37201E1,1.672484E1,1.3165417E1,3.241831E1,8.140891E0,3.9083023E1,0E0,0E0,0E0,0E0,0E0,0E0,0E0,0E0,0E0,0E0,0E0,0E0,0E0,0E0],"parents":[2147483647,0,0,1,1,2,2,3,3,4,4,5,5,6,6,8,8,9,9,10,10,11,11,12,12,13,13,14,14],"right_children":[2,4,6,8,10,12,14,-1,16,18,20,22,24,26,28,-1,-1,-1,-1,-1,-1,-1,-1,-1,-1,-1,-1,-1,-1],"split_conditions":[-2.7668354E-1,-1.6144028E0,-3.9821348E-1,-1.9966083E0,3.8998875E-1,-2.4134269E-2,-1.0568565E0,-4.8851678E-1,1.5915202E-2,-7.986759E-1,2.1240337E0,-1.3440561E0,2.8158517E0,9.427169E-1,1.8254467E0,-2.1487398E-1,1.13979345E-2,-1.9478558E-1,-7.052212E-2,-8.468996E-3,1.4652339E-1,-2.4391277E-1,-7.79932E-2,1.1882304E-2,2.7622008E-1,-1.1290818E-1,5.4766275E-2,8.763549E-2,2.7761486E-1],"split_indices":[4,4,10,4,10,7,7,0,2,7,10,10,7,21,4,0,0,0,0,0,0,0,0,0,0,0,0,0,0],"split_type":[0,0,0,0,0,0,0,0,0,0,0,0,0,0,0,0,0,0,0,0,0,0,0,0,0,0,0,0,0],"sum_hessian":[4.6E2,1.72E2,2.88E2,1.5E1,1.57E2,1.11E2,1.77E2,2E0,1.3E1,9.7E1,6E1,4.1E1,7E1,1.6E1,1.61E2,1.2E1,1E0,1.9E1,7.8E1,5.3E1,7E0,5E0,3.6E1,6.6E1,4E0,1.3E1,3E0,1.5E2,1.1E1],"tree_param":{"num_deleted":"0","num_feature":"27","num_nodes":"29","size_leaf_vector":"1"}},{"base_weights":[-3.5604945E-4,-2.057612E-1,1.4026716E0,-2.6977615E0,-1.0246798E-1,1.1196731E0,3.3449924E-1,-1.058245E0,-3.5756469E0,-1.1059417E0,1.3359399E-1,7.489911E-1,2.2026186E0,1.5232468E-2,-1.2853941E-1,-4.3880233E-1,-2.3027256E-1,-1.2515205E-1,4.662443E-2,-9.413656E-4,1.4440322E-1,-2.9155662E-2,1.0940566E-1,1.6951427E-1,3.3291575E-1],"categories":[],"categories_nodes":[],"categories_segments":[],"categories_sizes":[],"default_left":[0,0,0,0,0,0,0,0,0,0,0,0,0,0,0,0,0,0,0,0,0,0,0,0,0],"id":32,"left_children":[1,3,5,7,9,11,-1,13,15,17,19,21,23,-1,-1,-1,-1,-1,-1,-1,-1,-1,-1,-1,-1],"loss_changes":[1.3314377E2,1.0345847E2,2.8685455E1,1.9245018E1,9.205796E1,1.9625961E1,0E0,2.120655E0,2.365036E-1,1.7520401E1,5.904544E1,1.5040325E1,1.7885933E0,0E0,0E0,0E0,0E0,0E0,0E0,0E0,0E0,0E0,0E0,0E0,0E0],"parents":[2147483647,0,0,1,1,2,2,3,3,4,4,5,5,7,7,8,8,9,9,10,10,11,11,12,12],"right_children":[2,4,6,8,10,12,-1,14,16,18,20,22,24,-1,-1,-1,-1,-1,-1,-1,-1,-1,-1,-1,-1],"split_conditions":[1.2667685E0,-1.4374824E0,2.2211573E0,-4.1242554E-3,-8.499918E-1,1.3454292E0,3.3449924E-1,-5.2060825E-1,-2.4134269E-2,1.9508284E0,1.4934719E0,-1.0465235E0,1.6670443E0,1.5232468E-2,-1.2853941E-1,-4.3880233E-1,-2.3027256E-1,-1.2515205E-1,4.662443E-2,-9.413656E-4,1.4440322E-1,-2.9155662E-2,1.0940566E-1,1.6951427E-1,3.3291575E-1],"split_indices":[7,11,8,2,4,6,0,1,7,11,10,11,17,0,0,0,0,0,0,0,0,0,0,0,0],"split_type":[0,0,0,0,0,0,0,0,0,0,0,0,0,0,0,0,0,0,0,0,0,0,0,0,0],"sum_hessian":[4.6E2,4.02E2,5.8E1,1.5E1,3.87E2,5.2E1,6E0,6E0,9E0,7.3E1,3.14E2,4E1,1.2E1,1E0,5E0,4E0,5E0,6.7E1,6E0,2.84E2,3E1,1E1,3E1,1E1,2E0],"tree_param":{"num_deleted":"0","num_feature":"27","num_nodes":"25","size_leaf_vector":"1"}},{"base_weights":[1.1149508E-4,-3.132446E-1,8.266799E-1,-6.1700505E-1,4.1710356E-1,6.050413E-1,2.135211E0,-2.861889E0,-4.9507755E-1,-2.2713561E-1,8.764301E-1,3.5401967E-1,1.7886702E0,1.5658621E-1,3.012932E-1,-1.855969E-1,-4.4097367E-1,-1.2039345E-1,-2.5448982E-2,-5.8388114E-2,6.1359525E-2,6.662099E-2,2.312862E-1,2.309084E-2,2.4499741E-1,8.533334E-2,2.3913394E-1],"categories":[],"categories_nodes":[],"categories_segments":[],"categories_sizes":[],"default_left":[0,0,0,0,0,0,0,0,0,0,0,0,0,0,0,0,0,0,0,0,0,0,0,0,0,0,0],"id":33,"left_children":[1,3,5,7,9,11,13,15,17,19,21,23,25,-1,-1,-1,-1,-1,-1,-1,-1,-1,-1,-1,-1,-1,-1],"loss_changes":[1.1966267E2,7.457741E1,3.554078E1,6.3453117E1,2.9494768E1,3.2049583E1,4.2772903E0,1.0499809E1,3.823617E1,1.2955198E1,1.5973232E1,2.3173557E1,8.669655E0,0E0,0E0,0E0,0E0,0E0,0E0,0E0,0E0,0E0,0E0,0E0,0E0,0E0,0E0],"parents":[2147483647,0,0,1,1,2,2,3,3,4,4,5,5,6,6,7,7,8,8,9,9,10,10,11,11,12,12],"right_children":[2,4,6,8,10,12,14,16,18,20,22,24,26,-1,-1,-1,-1,-1,-1,-1,-1,-1,-1,-1,-1,-1,-1],"split_conditions":[6.788302E-1,4.9222684E-1,2.0165493E0,-1.3071628E0,-2.4057302E-1,8.629101E-1,2.5898578E0,7.737476E-1,-8.499918E-1,1.2667685E0,1.4934719E0,2.2994907E0,-2.4134269E-2,1.5658621E-1,3.012932E-1,-1.855969E-1,-4.4097367E-1,-1.2039345E-1,-2.5448982E-2,-5.8388114E-2,6.1359525E-2,6.662099E-2,2.312862E-1,2.309084E-2,2.4499741E-1,8.533334E-2,2.3913394E-1],"split_indices":[4,7,4,11,10,10,4,19,4,7,10,7,7,0,0,0,0,0,0,0,0,0,0,0,0,0,0],"split_type":[0,0,0,0,0,0,0,0,0,0,0,0,0,0,0,0,0,0,0,0,0,0,0,0,0,0,0],"sum_hessian":[4.6E2,3.34E2,1.26E2,2.36E2,9.8E1,1.09E2,1.7E1,1.1E1,2.25E2,4.1E1,5.7E1,9.1E1,1.8E1,1.2E1,5E0,8E0,3E0,5.6E1,1.69E2,2.9E1,1.2E1,5.1E1,6E0,8.7E1,4E0,8E0,1E1],"tree_param":{"num_deleted":"0","num_feature":"27","num_nodes":"27","size_leaf_vector":"1"}},{"base_weights":[1.3565593E-3,-4.8403856E-1,4.5819333E-1,-1.0738192E0,-8.341797E-3,-3.9824325E-1,6.8233955E-1,-3.7321243E-1,-9.241801E-1,-2.7822194E-1,8.555527E-1,-9.8589486E-1,3.3447364E-1,5.223895E-1,1.9370644E0,-1.7661771E-1,-5.691063E-2,-7.219385E-2,9.539608E-3,6.217282E-2,1.9003296E-1,-1.9644451E-1,-5.6616645E-2,-1.302177E-3,1.5880616E-1,3.520683E-2,1.4051132E-1,9.711652E-2,2.2586797E-1],"categories":[],"categories_nodes":[],"categories_segments":[],"categories_sizes":[],"default_left":[0,0,0,0,0,0,0,0,0,0,0,0,0,0,0,0,0,0,0,0,0,0,0,0,0,0,0,0,0],"id":34,"left_children":[1,3,5,7,9,11,13,-1,15,17,19,21,23,25,27,-1,-1,-1,-1,-1,-1,-1,-1,-1,-1,-1,-1,-1,-1],"loss_changes":[1.02446846E2,6.2835735E1,4.5959885E1,3.6329468E1,2.9381527E1,2.1858871E1,3.6919144E1,0E0,2.7696075E1,1.5983803E1,6.1473465E0,1.0388105E1,1.0039848E1,2.4913872E1,4.330055E0,0E0,0E0,0E0,0E0,0E0,0E0,0E0,0E0,0E0,0E0,0E0,0E0,0E0,0E0],"parents":[2147483647,0,0,1,1,2,2,3,3,4,4,5,5,6,6,8,8,9,9,10,10,11,11,12,12,13,13,14,14],"right_children":[2,4,6,8,10,12,14,-1,16,18,20,22,24,26,28,-1,-1,-1,-1,-1,-1,-1,-1,-1,-1,-1,-1,-1,-1],"split_conditions":[-2.4134269E-2,-8.2932584E-2,-8.711348E-1,-1.5016966E0,4.8772746E-1,1.1738427E-1,1.5266645E0,-3.7321243E-1,-7.986759E-1,-6.3970774E-1,1.4934719E0,-1.3440561E0,2.2994907E0,1.3358314E0,8.6993295E-1,-1.7661771E-1,-5.691063E-2,-7.219385E-2,9.539608E-3,6.217282E-2,1.9003296E-1,-1.9644451E-1,-5.6616645E-2,-1.302177E-3,1.5880616E-1,3.520683E-2,1.4051132E-1,9.711652E-2,2.2586797E-1],"split_indices":[7,10,10,10,4,6,16,0,7,16,10,10,7,10,4,0,0,0,0,0,0,0,0,0,0,0,0,0,0],"split_type":[0,0,0,0,0,0,0,0,0,0,0,0,0,0,0,0,0,0,0,0,0,0,0,0,0,0,0,0,0],"sum_hessian":[4.6E2,2.23E2,2.37E2,9.9E1,1.24E2,4.9E1,1.88E2,4E0,9.5E1,9.5E1,2.9E1,2.7E1,2.2E1,1.68E2,2E1,2.7E1,6.8E1,4.3E1,5.2E1,2.5E1,4E0,7E0,2E1,1.8E1,4E0,1.42E2,2.6E1,6E0,1.4E1],"tree_param":{"num_deleted":"0","num_feature":"27","num_nodes":"29","size_leaf_vector":"1"}},{"base_weights":[1.1903344E-3,-3.116122E-1,6.2073344E-1,-1.484145E0,-1.503748E-1,4.5106262E-1,1.8870578E0,-4.4604722E-1,-1.2775674E0,-4.432494E-1,3.1686744E-1,3.2689E-1,2.1945496E-1,1.3830966E-1,2.6644642E0,-1.9967169E-1,-8.812729E-2,-1.2286439E-1,-2.9632334E-2,3.996118E-3,8.939376E-2,1.8123372E-2,1.4315058E-1,2.8829893E-1,7.859192E-2],"categories":[],"categories_nodes":[],"categories_segments":[],"categories_sizes":[],"default_left":[0,0,0,0,0,0,0,0,0,0,0,0,0,0,0,0,0,0,0,0,0,0,0,0,0],"id":35,"left_children":[1,3,5,7,9,11,13,-1,15,17,19,21,-1,-1,23,-1,-1,-1,-1,-1,-1,-1,-1,-1,-1],"loss_changes":[8.953276E1,5.781705E1,3.245185E1,1.7050629E1,3.722501E1,2.9158716E1,3.3668747E0,0E0,8.500168E0,1.890688E1,1.674268E1,2.065681E1,0E0,0E0,1.9726181E-1,0E0,0E0,0E0,0E0,0E0,0E0,0E0,0E0,0E0,0E0],"parents":[2147483647,0,0,1,1,2,2,3,3,4,4,5,5,6,6,8,8,9,9,10,10,11,11,14,14],"right_children":[2,4,6,8,10,12,14,-1,16,18,20,22,-1,-1,24,-1,-1,-1,-1,-1,-1,-1,-1,-1,-1],"split_conditions":[4.8772746E-1,-1.3009738E0,2.0165493E0,-2.187711E0,3.8998875E-1,1.4934719E0,2.5898578E0,-4.4604722E-1,-1.5732175E0,-1.0465235E0,4.9222684E-1,1.4096144E0,2.1945496E-1,1.3830966E-1,-3.9858273E-3,-1.9967169E-1,-8.812729E-2,-1.2286439E-1,-2.9632334E-2,3.996118E-3,8.939376E-2,1.8123372E-2,1.4315058E-1,2.8829893E-1,7.859192E-2],"split_indices":[4,9,4,4,10,10,4,0,7,11,7,8,0,0,2,0,0,0,0,0,0,0,0,0,0],"split_type":[0,0,0,0,0,0,0,0,0,0,0,0,0,0,0,0,0,0,0,0,0,0,0,0,0],"sum_hessian":[4.6E2,3.06E2,1.54E2,3.6E1,2.7E2,1.37E2,1.7E1,1E0,3.5E1,1.66E2,1.04E2,1.29E2,8E0,1.2E1,5E0,1.1E1,2.4E1,2.5E1,1.41E2,7.1E1,3.3E1,1.15E2,1.4E1,4E0,1E0],"tree_param":{"num_deleted":"0","num_feature":"27","num_nodes":"25","size_leaf_vector":"1"}},{"base_weights":[1.2731159E-3,-4.703801E-1,3.6130887E-1,-1.7119356E0,-3.073118E-1,-7.845993E-1,5.017791E-1,-3.8425446E-1,-1.3260422E0,-8.8408875E-1,-6.226028E-2,-1.232743E0,7.9995835E-1,4.0200672E-1,1.9316554E0,-8.370019E-3,-1.5284492E-1,-1.2561905E-1,-4.7924295E-2,-7.276607E-2,2.1198502E-2,9.2688374E-2,-1.3730389E-1,1.23043254E-1,1.6949464E-2,3.219442E-2,1.6520832E-1,9.3877606E-2,2.6830778E-1],"categories":[],"categories_nodes":[],"categories_segments":[],"categories_sizes":[],"default_left":[0,0,0,0,0,0,0,0,0,0,0,0,0,0,0,0,0,0,0,0,0,0,0,0,0,0,0,0,0],"id":36,"left_children":[1,3,5,7,9,11,13,-1,15,17,19,21,23,25,27,-1,-1,-1,-1,-1,-1,-1,-1,-1,-1,-1,-1,-1,-1],"loss_changes":[7.845329E1,3.996557E1,4.2566776E1,1.3814949E1,2.5103489E1,2.1579319E1,3.2606407E1,0E0,5.1527023E0,7.382099E0,2.3147104E1,8.241344E0,1.691237E0,2.148666E1,8.672268E0,0E0,0E0,0E0,0E0,0E0,0E0,0E0,0E0,0E0,0E0,0E0,0E0,0E0,0E0],"parents":[2147483647,0,0,1,1,2,2,3,3,4,4,5,5,6,6,8,8,9,9,10,10,11,11,12,12,13,13,14,14],"right_children":[2,4,6,8,10,12,14,-1,16,18,20,22,24,26,28,-1,-1,-1,-1,-1,-1,-1,-1,-1,-1,-1,-1,-1,-1],"split_conditions":[-9.811469E-2,-1.4233E0,-1.1864157E0,-1.9966083E0,-3.9821348E-1,1.4432412E0,2.04131E0,-3.8425446E-1,-6.907219E-1,1.4605533E-3,-8.897567E-1,-2.0162354E0,3.5139543E-1,2.0165493E0,1.0038431E0,-8.370019E-3,-1.5284492E-1,-1.2561905E-1,-4.7924295E-2,-7.276607E-2,2.1198502E-2,9.2688374E-2,-1.3730389E-1,1.23043254E-1,1.6949464E-2,3.219442E-2,1.6520832E-1,9.3877606E-2,2.6830778E-1],"split_indices":[16,4,10,4,10,4,7,0,25,5,8,2,14,4,8,0,0,0,0,0,0,0,0,0,0,0,0,0,0],"split_type":[0,0,0,0,0,0,0,0,0,0,0,0,0,0,0,0,0,0,0,0,0,0,0,0,0,0,0,0,0],"sum_hessian":[4.6E2,1.99E2,2.61E2,2.2E1,1.77E2,2.8E1,2.33E2,2E0,2E1,5.2E1,1.25E2,2.2E1,6E0,2.19E2,1.4E1,3E0,1.7E1,2.6E1,2.6E1,3.6E1,8.9E1,1E0,2.1E1,3E0,3E0,2.07E2,1.2E1,7E0,7E0],"tree_param":{"num_deleted":"0","num_feature":"27","num_nodes":"29","size_leaf_vector":"1"}},{"base_weights":[8.9421135E-4,-4.987963E-1,3.000138E-1,-1.8821545E0,-3.555525E-1,1.6736238E-1,1.4835316E0,-3.586375E-1,-1.3825247E0,-8.380732E-1,-8.242274E-2,3.3074234E-2,1.3798485E0,8.1953657E-1,2.237715E0,-1.5170957E-1,1.834488E-2,-1.828085E-1,-6.629099E-2,-2.8701512E-2,7.203867E-2,-4.445167E-2,2.8084213E-2,5.1292993E-2,1.6722433E-1,9.8187E-2,-2.6530966E-2,1.4506913E-2,2.400013E-1],"categories":[],"categories_nodes":[],"categories_segments":[],"categories_sizes":[],"default_left":[0,0,0,0,0,0,0,0,0,0,0,0,0,0,0,0,0,0,0,0,0,0,0,0,0,0,0,0,0],"id":37,"left_children":[1,3,5,7,9,11,13,-1,15,17,19,21,23,25,27,-1,-1,-1,-1,-1,-1,-1,-1,-1,-1,-1,-1,-1,-1],"loss_changes":[6.905405E1,3.3612053E1,4.5123367E1,8.665417E0,2.0753864E1,4.2451035E1,1.2688553E1,0E0,3.228592E0,8.6727295E0,1.6960129E1,2.8051119E1,5.7328033E0,3.2543154E0,4.0670624E0,0E0,0E0,0E0,0E0,0E0,0E0,0E0,0E0,0E0,0E0,0E0,0E0,0E0,0E0],"parents":[2147483647,0,0,1,1,2,2,3,3,4,4,5,5,6,6,8,8,9,9,10,10,11,11,12,12,13,13,14,14],"right_children":[2,4,6,8,10,12,14,-1,16,18,20,22,24,26,28,-1,-1,-1,-1,-1,-1,-1,-1,-1,-1,-1,-1,-1,-1],"split_conditions":[-2.7668354E-1,-1.6144028E0,1.3358314E0,-1.9966083E0,-2.4057302E-1,1.7071956E0,-2.4134269E-2,-3.586375E-1,1.5915202E-2,-1.0568565E0,7.504074E-1,-2.823148E-1,-4.04458E-1,1.5728363E0,-2.0086265E0,-1.5170957E-1,1.834488E-2,-1.828085E-1,-6.629099E-2,-2.8701512E-2,7.203867E-2,-4.445167E-2,2.8084213E-2,5.1292993E-2,1.6722433E-1,9.8187E-2,-2.6530966E-2,1.4506913E-2,2.400013E-1],"split_indices":[4,4,10,4,10,16,7,0,2,7,7,7,12,25,0,0,0,0,0,0,0,0,0,0,0,0,0,0,0],"split_type":[0,0,0,0,0,0,0,0,0,0,0,0,0,0,0,0,0,0,0,0,0,0,0,0,0,0,0,0,0],"sum_hessian":[4.6E2,1.72E2,2.88E2,1.5E1,1.57E2,2.6E2,2.8E1,2E0,1.3E1,5.6E1,1.01E2,2.35E2,2.5E1,1.6E1,1.2E1,1.2E1,1E0,7E0,4.9E1,8.1E1,2E1,8E1,1.55E2,7E0,1.8E1,1.4E1,2E0,1E0,1.1E1],"tree_param":{"num_deleted":"0","num_feature":"27","num_nodes":"29","size_leaf_vector":"1"}},{"base_weights":[4.3656354E-4,-1.6533846E-1,7.801877E-1,-1.407867E0,-5.5128418E-2,6.5415174E-1,2.2466125E0,-1.7124337E0,1.4656703E-1,-7.992533E-1,1.0727642E-1,7.966147E-2,8.183326E-1,2.4359468E-1,6.49971E-2,-2.5250924E-1,-1.133668E-1,-4.026642E-2,8.3001964E-2,-1.254433E-1,-3.1909704E-2,4.4631958E-4,1.14709996E-1,-3.5069276E-2,8.060314E-2,9.111936E-2,-6.863041E-2],"categories":[],"categories_nodes":[],"categories_segments":[],"categories_sizes":[],"default_left":[0,0,0,0,0,0,0,0,0,0,0,0,0,0,0,0,0,0,0,0,0,0,0,0,0,0,0],"id":38,"left_children":[1,3,5,7,9,11,13,15,17,19,21,23,25,-1,-1,-1,-1,-1,-1,-1,-1,-1,-1,-1,-1,-1,-1],"loss_changes":[5.9719357E1,5.2096188E1,1.3500984E1,1.4927284E1,4.250391E1,7.103157E0,2.3049736E-1,9.366196E0,2.58646E0,1.3368828E1,3.0891182E1,5.9094033E0,8.868954E0,0E0,0E0,0E0,0E0,0E0,0E0,0E0,0E0,0E0,0E0,0E0,0E0,0E0,0E0],"parents":[2147483647,0,0,1,1,2,2,3,3,4,4,5,5,6,6,7,7,8,8,9,9,10,10,11,11,12,12],"right_children":[2,4,6,8,10,12,14,16,18,20,22,24,26,-1,-1,-1,-1,-1,-1,-1,-1,-1,-1,-1,-1,-1,-1],"split_conditions":[1.0610358E0,-1.1864157E0,2.5898578E0,1.2667685E0,-7.986759E-1,-2.823148E-1,-3.9858273E-3,-1.5016966E0,1.6801287E0,2.3234831E-1,1.6511123E0,1.634344E0,1.2589881E0,2.4359468E-1,6.49971E-2,-2.5250924E-1,-1.133668E-1,-4.026642E-2,8.3001964E-2,-1.254433E-1,-3.1909704E-2,4.4631958E-4,1.14709996E-1,-3.5069276E-2,8.060314E-2,9.111936E-2,-6.863041E-2],"split_indices":[4,10,4,7,7,7,2,10,8,10,10,4,19,0,0,0,0,0,0,0,0,0,0,0,0,0,0],"split_type":[0,0,0,0,0,0,0,0,0,0,0,0,0,0,0,0,0,0,0,0,0,0,0,0,0,0,0],"sum_hessian":[4.6E2,3.8E2,8E1,3E1,3.5E2,7.5E1,5E0,2.5E1,5E0,6.2E1,2.88E2,1.7E1,5.8E1,4E0,1E0,9E0,1.6E1,3E0,2E0,3.1E1,3.1E1,2.63E2,2.5E1,1.1E1,6E0,5.5E1,3E0],"tree_param":{"num_deleted":"0","num_feature":"27","num_nodes":"27","size_leaf_vector":"1"}},{"base_weights":[4.169853E-4,-6.219933E-1,1.903037E-1,-1.6958575E0,-4.305544E-1,-2.4084805E-1,4.416009E-1,-3.73975E-1,-1.3102814E0,-5.234295E-1,7.852587E-1,-8.152155E-1,3.9361503E-2,2.0047861E-1,9.2765313E-1,-1.4205764E-1,1.1692429E-2,-1.6918705E-1,-4.1599106E-2,2.7173003E-2,1.379387E-1,-1.0166061E-1,3.6573682E-2,-1.904553E-2,8.417522E-2,1.4481184E-2,2.2100297E-1,8.157732E-2,2.0596631E-1],"categories":[],"categories_nodes":[],"categories_segments":[],"categories_sizes":[],"default_left":[0,0,0,0,0,0,0,0,0,0,0,0,0,0,0,0,0,0,0,0,0,0,0,0,0,0,0,0,0],"id":39,"left_children":[1,3,5,7,9,11,13,-1,15,17,19,21,23,25,27,-1,-1,-1,-1,-1,-1,-1,-1,-1,-1,-1,-1,-1,-1],"loss_changes":[5.460278E1,2.1472416E1,3.8461277E1,7.709095E0,1.09124775E1,2.1115654E1,2.606638E1,0E0,2.5273037E0,1.0217787E1,1.7608919E0,1.0598612E1,1.6572172E1,1.657161E1,7.691818E0,0E0,0E0,0E0,0E0,0E0,0E0,0E0,0E0,0E0,0E0,0E0,0E0,0E0,0E0],"parents":[2147483647,0,0,1,1,2,2,3,3,4,4,5,5,6,6,8,8,9,9,10,10,11,11,12,12,13,13,14,14],"right_children":[2,4,6,8,10,12,14,-1,16,18,20,22,24,26,28,-1,-1,-1,-1,-1,-1,-1,-1,-1,-1,-1,-1,-1,-1],"split_conditions":[-6.5888906E-1,-1.6144028E0,-3.9821348E-1,-2.187711E0,2.1240337E0,-2.1347103E-1,4.9222684E-1,-3.73975E-1,1.5915202E-2,-1.5732175E0,8.7280005E-1,1.0848223E0,1.3461335E0,2.1240337E0,1.4934719E0,-1.4205764E-1,1.1692429E-2,-1.6918705E-1,-4.1599106E-2,2.7173003E-2,1.379387E-1,-1.0166061E-1,3.6573682E-2,-1.904553E-2,8.417522E-2,1.4481184E-2,2.2100297E-1,8.157732E-2,2.0596631E-1],"split_indices":[4,4,10,4,10,8,7,0,2,7,12,9,16,10,10,0,0,0,0,0,0,0,0,0,0,0,0,0,0],"split_type":[0,0,0,0,0,0,0,0,0,0,0,0,0,0,0,0,0,0,0,0,0,0,0,0,0,0,0,0,0],"sum_hessian":[4.6E2,1.07E2,3.53E2,1.5E1,9.2E1,1.3E2,2.23E2,1E0,1.4E1,8.6E1,6E0,4.2E1,8.8E1,1.5E2,7.3E1,1.3E1,1E0,6E0,8E1,4E0,2E0,3.6E1,6E0,6.9E1,1.9E1,1.47E2,3E0,6.8E1,5E0],"tree_param":{"num_deleted":"0","num_feature":"27","num_nodes":"29","size_leaf_vector":"1"}},{"base_weights":[3.1589996E-4,-3.4120357E-1,2.9758865E-1,-1.5577917E0,-2.4217048E-1,2.0541906E-1,1.7094502E0,-3.552761E-1,-1.187943E0,-3.1792575E-1,1.2289718E0,1.0779872E-1,1.365451E0,3.922831E-1,1.8819158E-1,-1.2886642E-1,1.1107636E-2,-8.8308334E-2,-1.7640682E-2,1.786026E-1,5.5993147E-2,-1.066494E-1,1.882534E-2,9.5215134E-2,2.0333584E-1,5.966187E-4,5.824585E-2],"categories":[],"categories_nodes":[],"categories_segments":[],"categories_sizes":[],"default_left":[0,0,0,0,0,0,0,0,0,0,0,0,0,0,0,0,0,0,0,0,0,0,0,0,0,0,0],"id":40,"left_children":[1,3,5,7,9,11,13,-1,15,17,19,21,23,25,-1,-1,-1,-1,-1,-1,-1,-1,-1,-1,-1,-1,-1],"loss_changes":[4.6904297E1,2.5526476E1,3.179113E1,7.584915E0,2.2680073E1,2.6238358E1,2.6692429E0,0E0,2.1057205E0,1.5120495E1,2.7268648E0,2.0607876E1,3.0327568E0,2.1692881E-1,0E0,0E0,0E0,0E0,0E0,0E0,0E0,0E0,0E0,0E0,0E0,0E0,0E0],"parents":[2147483647,0,0,1,1,2,2,3,3,4,4,5,5,6,6,8,8,9,9,10,10,11,11,12,12,13,13],"right_children":[2,4,6,8,10,12,14,-1,16,18,20,22,24,26,-1,-1,-1,-1,-1,-1,-1,-1,-1,-1,-1,-1,-1],"split_conditions":[-8.5580796E-2,-1.6144028E0,1.4934719E0,-2.187711E0,2.1240337E0,2.0165493E0,-6.2848353E-1,-3.552761E-1,1.5915202E-2,-8.897567E-1,-4.134919E-3,-1.0568565E0,2.5898578E0,-5.2060825E-1,1.8819158E-1,-1.2886642E-1,1.1107636E-2,-8.8308334E-2,-1.7640682E-2,1.786026E-1,5.5993147E-2,-1.066494E-1,1.882534E-2,9.5215134E-2,2.0333584E-1,5.966187E-4,5.824585E-2],"split_indices":[4,4,10,4,10,4,20,0,2,8,2,7,4,1,0,0,0,0,0,0,0,0,0,0,0,0,0],"split_type":[0,0,0,0,0,0,0,0,0,0,0,0,0,0,0,0,0,0,0,0,0,0,0,0,0,0,0],"sum_hessian":[4.6E2,2.14E2,2.46E2,1.5E1,1.99E2,2.32E2,1.4E1,1E0,1.4E1,1.9E2,9E0,2.15E2,1.7E1,2E0,1.2E1,1.3E1,1E0,3.7E1,1.53E2,4E0,5E0,1.3E1,2.02E2,1.2E1,5E0,1E0,1E0],"tree_param":{"num_deleted":"0","num_feature":"27","num_nodes":"27","size_leaf_vector":"1"}},{"base_weights":[5.3106213E-4,-1.1661145E-1,8.00665E-1,-1.583761E0,-4.789305E-2,6.070368E-1,2.1523264E-1,-1.9055557E0,1.8909454E-2,-2.1902238E-1,3.6748153E-1,-1.8652813E-1,8.438492E-1,-6.839619E-2,-2.1539573E-1,-3.7627794E-2,2.7606456E-2,-1.3405457E-1,-1.5347672E-2,2.6569417E-2,1.5141694E-1,-1.0831579E-1,7.496435E-3,6.1171304E-2,1.601254E-1],"categories":[],"categories_nodes":[],"categories_segments":[],"categories_sizes":[],"default_left":[0,0,0,0,0,0,0,0,0,0,0,0,0,0,0,0,0,0,0,0,0,0,0,0,0],"id":41,"left_children":[1,3,5,7,9,11,-1,13,15,17,19,21,23,-1,-1,-1,-1,-1,-1,-1,-1,-1,-1,-1,-1],"loss_changes":[4.330276E1,4.0554676E1,1.4134922E1,9.319191E0,2.7518436E1,1.0117479E1,0E0,3.0784645E0,5.103748E-1,1.993627E1,1.2786865E1,3.1292033E0,6.2291527E0,0E0,0E0,0E0,0E0,0E0,0E0,0E0,0E0,0E0,0E0,0E0,0E0],"parents":[2147483647,0,0,1,1,2,2,3,3,4,4,5,5,7,7,8,8,9,9,10,10,11,11,12,12],"right_children":[2,4,6,8,10,12,-1,14,16,18,20,22,24,-1,-1,-1,-1,-1,-1,-1,-1,-1,-1,-1,-1],"split_conditions":[1.2667685E0,-1.3440561E0,2.2211573E0,1.0610358E0,4.8772746E-1,-1.0465235E0,2.1523264E-1,-4.1500092E-3,-3.8734183E-1,-1.5732175E0,1.4934719E0,5.9807175E-1,1.0433433E0,-6.839619E-2,-2.1539573E-1,-3.7627794E-2,2.7606456E-2,-1.3405457E-1,-1.5347672E-2,2.6569417E-2,1.5141694E-1,-1.0831579E-1,7.496435E-3,6.1171304E-2,1.601254E-1],"split_indices":[7,10,8,4,4,11,0,2,1,7,10,8,17,0,0,0,0,0,0,0,0,0,0,0,0],"split_type":[0,0,0,0,0,0,0,0,0,0,0,0,0,0,0,0,0,0,0,0,0,0,0,0,0],"sum_hessian":[4.6E2,4.02E2,5.8E1,1.7E1,3.85E2,5.2E1,6E0,1.4E1,3E0,2.73E2,1.12E2,1.2E1,4E1,3E0,1.1E1,1E0,2E0,1.4E1,2.59E2,1.04E2,8E0,2E0,1E1,3.2E1,8E0],"tree_param":{"num_deleted":"0","num_feature":"27","num_nodes":"25","size_leaf_vector":"1"}},{"base_weights":[6.318992E-4,-2.3398955E-1,3.4257683E-1,-2.0419269E0,-1.7193907E-1,-1.8411978E-1,5.674187E-1,-2.386564E0,-5.5713147E-2,-3.9663705E-1,1.7096955E-1,-2.721388E-1,1.0501671E0,4.4156897E-1,1.3927805E0,-9.931539E-2,-2.7452973E-1,-1.1500265E-1,-2.6912201E-2,-1.06580906E-1,2.5583435E-2,-3.6534447E-2,5.3439714E-2,2.6655197E-2,1.22252144E-1,2.3756549E-2,6.485627E-2,6.399147E-2,2.1597652E-1],"categories":[],"categories_nodes":[],"categories_segments":[],"categories_sizes":[],"default_left":[0,0,0,0,0,0,0,0,0,0,0,0,0,0,0,0,0,0,0,0,0,0,0,0,0,0,0,0,0],"id":42,"left_children":[1,3,5,7,9,11,13,15,-1,17,19,21,23,25,27,-1,-1,-1,-1,-1,-1,-1,-1,-1,-1,-1,-1,-1,-1],"loss_changes":[3.706509E1,3.0387157E1,2.236808E1,3.2758064E0,2.0563347E1,6.4783125E0,1.3096039E1,7.7253723E-1,0E0,1.5157528E1,1.1398321E1,4.254619E0,2.1437263E-1,4.7443066E0,8.4343605E0,0E0,0E0,0E0,0E0,0E0,0E0,0E0,0E0,0E0,0E0,0E0,0E0,0E0,0E0],"parents":[2147483647,0,0,1,1,2,2,3,3,4,4,5,5,6,6,7,7,9,9,10,10,11,11,12,12,13,13,14,14],"right_children":[2,4,6,8,10,12,14,16,-1,18,20,22,24,26,28,-1,-1,-1,-1,-1,-1,-1,-1,-1,-1,-1,-1,-1,-1],"split_conditions":[2.3404628E-1,-1.3440561E0,-7.1349436E-1,6.212291E-1,3.8998875E-1,2.5576713E0,1.7831296E0,-5.2060825E-1,-5.5713147E-2,-1.0568565E0,-1.6144028E0,2.0165493E0,2.8158517E0,1.1738427E-1,1.0038431E0,-9.931539E-2,-2.7452973E-1,-1.1500265E-1,-2.6912201E-2,-1.06580906E-1,2.5583435E-2,-3.6534447E-2,5.3439714E-2,2.6655197E-2,1.22252144E-1,2.3756549E-2,6.485627E-2,6.399147E-2,2.1597652E-1],"split_indices":[7,10,10,13,10,7,7,1,0,7,4,4,7,6,8,0,0,0,0,0,0,0,0,0,0,0,0,0,0],"split_type":[0,0,0,0,0,0,0,0,0,0,0,0,0,0,0,0,0,0,0,0,0,0,0,0,0,0,0,0,0],"sum_hessian":[4.6E2,2.73E2,1.87E2,8E0,2.65E2,5.6E1,1.31E2,6E0,2E0,1.6E2,1.05E2,5.3E1,3E0,1.15E2,1.6E1,2E0,4E0,2.2E1,1.38E2,6E0,9.9E1,4.8E1,5E0,1E0,2E0,5.9E1,5.6E1,9E0,7E0],"tree_param":{"num_deleted":"0","num_feature":"27","num_nodes":"29","size_leaf_vector":"1"}},{"base_weights":[3.1232522E-4,-5.798972E-1,1.2182136E-1,-2.710513E-1,-4.905159E-1,-2.3955053E-1,3.2718557E-1,-6.1720765E-1,2.5772285E-1,-3.0362839E-1,1.2314466E0,-4.5276916E-1,4.143296E-1,-8.045697E-2,-6.2468215E-3,-3.3861082E-2,5.9821606E-2,-1.0431967E-1,-1.9450728E-2,2.5322342E-2,1.3764465E-1,2.5132274E-2,-7.40545E-2,3.6918238E-2,1.9630496E-1],"categories":[],"categories_nodes":[],"categories_segments":[],"categories_sizes":[],"default_left":[0,0,0,0,0,0,0,0,0,0,0,0,0,0,0,0,0,0,0,0,0,0,0,0,0],"id":43,"left_children":[1,3,5,-1,7,9,11,13,15,17,19,21,23,-1,-1,-1,-1,-1,-1,-1,-1,-1,-1,-1,-1],"loss_changes":[3.2571465E1,1.390543E1,2.8427689E1,0E0,7.553133E0,1.347581E1,1.6771883E1,6.9135284E0,2.6391332E0,1.0611229E1,5.025053E-1,5.2516336E0,1.4657764E1,0E0,0E0,0E0,0E0,0E0,0E0,0E0,0E0,0E0,0E0,0E0,0E0],"parents":[2147483647,0,0,1,1,2,2,4,4,5,5,6,6,7,7,8,8,9,9,10,10,11,11,12,12],"right_children":[2,4,6,-1,8,10,12,14,16,18,20,22,24,-1,-1,-1,-1,-1,-1,-1,-1,-1,-1,-1,-1],"split_conditions":[-8.499918E-1,-1.9966083E0,-3.9821348E-1,-2.710513E-1,1.4295498E0,2.5576713E0,-1.295528E0,4.9222684E-1,1.07791804E-1,-1.4374824E0,2.8158517E0,-1.0481259E0,2.2816741E0,-8.045697E-2,-6.2468215E-3,-3.3861082E-2,5.9821606E-2,-1.0431967E-1,-1.9450728E-2,2.5322342E-2,1.3764465E-1,2.5132274E-2,-7.40545E-2,3.6918238E-2,1.9630496E-1],"split_indices":[4,4,10,0,11,7,8,7,17,11,7,25,10,0,0,0,0,0,0,0,0,0,0,0,0],"split_type":[0,0,0,0,0,0,0,0,0,0,0,0,0,0,0,0,0,0,0,0,0,0,0,0,0],"sum_hessian":[4.6E2,7.9E1,3.81E2,2E0,7.7E1,1.38E2,2.43E2,6.6E1,1.1E1,1.33E2,5E0,2.4E1,2.19E2,4.9E1,1.7E1,4E0,7E0,1.6E1,1.17E2,1E0,4E0,7E0,1.7E1,2.14E2,5E0],"tree_param":{"num_deleted":"0","num_feature":"27","num_nodes":"25","size_leaf_vector":"1"}},{"base_weights":[4.605771E-5,-1.16553135E-1,5.4849356E-1,-6.111445E-1,2.3252986E-2,4.504206E-1,1.6993357E0,-2.9946366E-1,-5.4634774E-1,-1.6376352E-1,3.8422355E-1,5.169936E-1,-4.124298E-1,1.8481049E-1,4.7774505E-2,-7.8919284E-2,-2.2310268E-2,-2.4503913E-2,7.112157E-2,3.1874698E-2,1.5907197E-1,1.823845E-2,6.9488145E-2,-7.181702E-2,5.58136E-2],"categories":[],"categories_nodes":[],"categories_segments":[],"categories_sizes":[],"default_left":[0,0,0,0,0,0,0,0,0,0,0,0,0,0,0,0,0,0,0,0,0,0,0,0,0],"id":44,"left_children":[1,3,5,7,9,11,13,-1,15,17,19,21,23,-1,-1,-1,-1,-1,-1,-1,-1,-1,-1,-1,-1],"loss_changes":[2.9544203E1,2.635918E1,8.376772E0,1.1337057E1,2.0180143E1,4.5788536E0,2.074852E-1,0E0,6.339302E0,1.4183825E1,7.550679E0,4.099392E0,2.1812835E0,0E0,0E0,0E0,0E0,0E0,0E0,0E0,0E0,0E0,0E0,0E0,0E0],"parents":[2147483647,0,0,1,1,2,2,3,3,4,4,5,5,6,6,8,8,9,9,10,10,11,11,12,12],"right_children":[2,4,6,8,10,12,14,-1,16,18,20,22,24,-1,-1,-1,-1,-1,-1,-1,-1,-1,-1,-1,-1],"split_conditions":[1.0610358E0,-7.1349436E-1,2.5898578E0,-2.187711E0,2.3404628E-1,1.2589881E0,-3.9858273E-3,-2.9946366E-1,4.628146E-1,1.9508284E0,2.3564143E0,6.2400943E-1,1.5982952E-4,1.8481049E-1,4.7774505E-2,-7.8919284E-2,-2.2310268E-2,-2.4503913E-2,7.112157E-2,3.1874698E-2,1.5907197E-1,1.823845E-2,6.9488145E-2,-7.181702E-2,5.58136E-2],"split_indices":[4,10,4,4,7,19,2,0,8,11,8,16,0,0,0,0,0,0,0,0,0,0,0,0,0],"split_type":[0,0,0,0,0,0,0,0,0,0,0,0,0,0,0,0,0,0,0,0,0,0,0,0,0],"sum_hessian":[4.6E2,3.8E2,8E1,8.3E1,2.97E2,7.5E1,5E0,1E0,8.2E1,1.96E2,1.01E2,7E1,5E0,4E0,1E0,4.6E1,3.6E1,1.8E2,1.6E1,9.7E1,4E0,2.5E1,4.5E1,4E0,1E0],"tree_param":{"num_deleted":"0","num_feature":"27","num_nodes":"25","size_leaf_vector":"1"}},{"base_weights":[3.4787392E-4,-1.0000873E0,5.758021E-2,-2.844906E-1,-8.046821E-1,-2.9580109E-2,6.1649853E-1,-8.9035267E-1,5.828705E-2,-3.6205414E-1,1.3157755E-1,4.740088E-1,1.607278E-1,-1.1643251E-1,-4.177559E-2,-4.1642692E-2,7.766812E-2,-4.7396343E-2,2.2019932E-2,-2.9816572E-3,6.926852E-2],"categories":[],"categories_nodes":[],"categories_segments":[],"categories_sizes":[],"default_left":[0,0,0,0,0,0,0,0,0,0,0,0,0,0,0,0,0,0,0,0,0],"id":45,"left_children":[1,3,5,-1,7,9,11,13,-1,15,17,19,-1,-1,-1,-1,-1,-1,-1,-1,-1],"loss_changes":[2.6453176E1,6.722933E0,2.1306908E1,0E0,3.3718977E0,2.0354738E1,7.5675144E0,2.491602E0,0E0,8.001038E0,1.3842377E1,5.859912E0,0E0,0E0,0E0,0E0,0E0,0E0,0E0,0E0,0E0],"parents":[2147483647,0,0,1,1,2,2,4,4,5,5,6,6,7,7,9,9,10,10,11,11],"right_children":[2,4,6,-1,8,10,12,14,-1,16,18,20,-1,-1,-1,-1,-1,-1,-1,-1,-1],"split_conditions":[-1.4233E0,-2.187711E0,1.2667685E0,-2.844906E-1,1.2107986E0,-3.9821348E-1,2.2211573E0,-4.0091667E-3,5.828705E-2,1.7071956E0,-1.295528E0,-7.8588414E-1,1.607278E-1,-1.1643251E-1,-4.177559E-2,-4.1642692E-2,7.766812E-2,-4.7396343E-2,2.2019932E-2,-2.9816572E-3,6.926852E-2],"split_indices":[4,4,7,0,5,10,8,2,0,16,8,11,0,0,0,0,0,0,0,0,0],"split_type":[0,0,0,0,0,0,0,0,0,0,0,0,0,0,0,0,0,0,0,0,0],"sum_hessian":[4.6E2,2.4E1,4.36E2,1E0,2.3E1,3.78E2,5.8E1,2.2E1,1E0,1.23E2,2.55E2,5.2E1,6E0,1.3E1,9E0,1.18E2,5E0,3.2E1,2.23E2,1.6E1,3.6E1],"tree_param":{"num_deleted":"0","num_feature":"27","num_nodes":"21","size_leaf_vector":"1"}},{"base_weights":[-5.113846E-6,-7.4456847E-1,7.056962E-2,-2.7026597E-1,-6.25062E-1,-1.5876058E-3,6.3282776E-1,-8.424117E-1,4.774614E-3,-7.1466774E-1,6.0244743E-2,4.934561E-1,1.5261866E0,-1.17323436E-1,-5.7506263E-2,-6.339811E-2,6.4273454E-2,6.0277816E-2,-8.302989E-2,-1.0142548E-3,5.9896108E-2,-6.253688E-2,5.6328584E-2,1.663736E-1,4.1922E-2],"categories":[],"categories_nodes":[],"categories_segments":[],"categories_sizes":[],"default_left":[0,0,0,0,0,0,0,0,0,0,0,0,0,0,0,0,0,0,0,0,0,0,0,0,0],"id":46,"left_children":[1,3,5,-1,7,9,11,13,15,17,19,21,23,-1,-1,-1,-1,-1,-1,-1,-1,-1,-1,-1,-1],"loss_changes":[2.4276878E1,7.670849E0,1.7121964E1,0E0,5.3429184E0,1.6577337E1,5.223322E0,1.8902245E0,4.889987E0,5.070616E0,1.3125974E1,3.711731E0,2.161026E-1,0E0,0E0,0E0,0E0,0E0,0E0,0E0,0E0,0E0,0E0,0E0,0E0],"parents":[2147483647,0,0,1,1,2,2,4,4,5,5,6,6,7,7,8,8,9,9,10,10,11,11,12,12],"right_children":[2,4,6,-1,8,10,12,14,16,18,20,22,24,-1,-1,-1,-1,-1,-1,-1,-1,-1,-1,-1,-1],"split_conditions":[-1.3009738E0,-2.187711E0,1.4432412E0,-2.7026597E-1,5.389442E-1,-1.1864157E0,2.5898578E0,-1.5732175E0,2.3234831E-1,-1.6945359E0,1.4934719E0,-1.1228656E0,-3.9858273E-3,-1.17323436E-1,-5.7506263E-2,-6.339811E-2,6.4273454E-2,6.0277816E-2,-8.302989E-2,-1.0142548E-3,5.9896108E-2,-6.253688E-2,5.6328584E-2,1.663736E-1,4.1922E-2],"split_indices":[9,4,4,0,5,10,4,7,10,13,10,18,2,0,0,0,0,0,0,0,0,0,0,0,0],"split_type":[0,0,0,0,0,0,0,0,0,0,0,0,0,0,0,0,0,0,0,0,0,0,0,0,0],"sum_hessian":[4.6E2,3.9E1,4.21E2,1E0,3.8E1,3.74E2,4.7E1,2.8E1,1E1,2.9E1,3.45E2,4.2E1,5E0,1.1E1,1.7E1,5E0,5E0,2E0,2.7E1,3.06E2,3.9E1,2E0,4E1,4E0,1E0],"tree_param":{"num_deleted":"0","num_feature":"27","num_nodes":"25","size_leaf_vector":"1"}},{"base_weights":[-4.517727E-4,-2.5424033E-1,1.9328168E-1,-9.332554E-1,-1.6507412E-1,-3.0564898E-1,2.8190923E-1,-2.567528E-1,-7.422645E-1,-2.1289223E-1,8.776722E-1,-4.6325052E-1,6.646347E-1,1.9228159E-1,8.748569E-1,-8.272858E-2,5.215912E-2,-5.0236117E-2,-3.064843E-3,2.379799E-3,1.3852371E-1,-5.3400286E-2,4.6944175E-2,2.9039383E-2,9.420776E-2,-9.156121E-2,2.4457445E-2,3.0438615E-2,1.0425346E-1],"categories":[],"categories_nodes":[],"categories_segments":[],"categories_sizes":[],"default_left":[0,0,0,0,0,0,0,0,0,0,0,0,0,0,0,0,0,0,0,0,0,0,0,0,0,0,0,0,0],"id":47,"left_children":[1,3,5,7,9,11,13,-1,15,17,19,21,23,25,27,-1,-1,-1,-1,-1,-1,-1,-1,-1,-1,-1,-1,-1,-1],"loss_changes":[2.2715282E1,1.1954984E1,1.1671546E1,5.2732334E0,9.062313E0,6.424619E0,1.1683004E1,0E0,2.7955065E0,9.005526E0,3.434206E0,2.560339E0,3.4940958E-1,1.1521244E1,2.4566689E0,0E0,0E0,0E0,0E0,0E0,0E0,0E0,0E0,0E0,0E0,0E0,0E0,0E0,0E0],"parents":[2147483647,0,0,1,1,2,2,3,3,4,4,5,5,6,6,8,8,9,9,10,10,11,11,12,12,13,13,14,14],"right_children":[2,4,6,8,10,12,14,-1,16,18,20,22,24,26,28,-1,-1,-1,-1,-1,-1,-1,-1,-1,-1,-1,-1,-1,-1],"split_conditions":[-9.811469E-2,-1.4233E0,-1.0287752E0,-2.187711E0,2.1240337E0,1.5361891E0,1.5266645E0,-2.567528E-1,1.2107986E0,-4.8398528E-1,-2.1753708E-1,2.0165493E0,2.8158517E0,-1.0568565E0,-4.04458E-1,-8.272858E-2,5.215912E-2,-5.0236117E-2,-3.064843E-3,2.379799E-3,1.3852371E-1,-5.3400286E-2,4.6944175E-2,2.9039383E-2,9.420776E-2,-9.156121E-2,2.4457445E-2,3.0438615E-2,1.0425346E-1],"split_indices":[16,4,10,4,10,9,16,0,5,8,6,4,7,7,12,0,0,0,0,0,0,0,0,0,0,0,0,0,0],"split_type":[0,0,0,0,0,0,0,0,0,0,0,0,0,0,0,0,0,0,0,0,0,0,0,0,0,0,0,0,0],"sum_hessian":[4.6E2,1.99E2,2.61E2,2.2E1,1.77E2,3.9E1,2.22E2,1E0,2.1E1,1.7E2,7E0,3.4E1,5E0,1.94E2,2.8E1,2E1,1E0,6.5E1,1.05E2,3E0,4E0,3.2E1,2E0,3E0,2E0,8E0,1.86E2,7E0,2.1E1],"tree_param":{"num_deleted":"0","num_feature":"27","num_nodes":"29","size_leaf_vector":"1"}},{"base_weights":[-4.400721E-4,-3.722116E-1,1.12982996E-1,-2.0845973E-1,-3.202364E-1,1.44529175E-2,5.271764E-1,-5.337494E-1,-1.411032E-1,-2.76051E-1,1.9127122E-1,4.15911E-1,1.6075999E-1,-7.8189485E-2,-7.673518E-3,-6.775012E-2,2.5215812E-3,-1.1768132E-1,-2.0269664E-2,-2.933132E-2,3.0280957E-2,2.8532738E-2,1.2780075E-1],"categories":[],"categories_nodes":[],"categories_segments":[],"categories_sizes":[],"default_left":[0,0,0,0,0,0,0,0,0,0,0,0,0,0,0,0,0,0,0,0,0,0,0],"id":48,"left_children":[1,3,5,-1,7,9,11,13,15,17,19,21,-1,-1,-1,-1,-1,-1,-1,-1,-1,-1,-1],"loss_changes":[1.9481256E1,8.944602E0,1.4439297E1,0E0,3.978898E0,1.4794961E1,7.5059166E0,5.3834887E0,5.280661E0,6.963622E0,9.763722E0,6.7276173E0,0E0,0E0,0E0,0E0,0E0,0E0,0E0,0E0,0E0,0E0,0E0],"parents":[2147483647,0,0,1,1,2,2,4,4,5,5,6,6,7,7,8,8,9,9,10,10,11,11],"right_children":[2,4,6,-1,8,10,12,14,16,18,20,22,-1,-1,-1,-1,-1,-1,-1,-1,-1,-1,-1],"split_conditions":[-6.5888906E-1,-1.9966083E0,8.629101E-1,-2.0845973E-1,-1.8681288E-1,-2.1347103E-1,2.1240337E0,4.6246904E-1,-1.1813009E0,-1.315037E0,-1.0287752E0,1.1391002E0,1.6075999E-1,-7.8189485E-2,-7.673518E-3,-6.775012E-2,2.5215812E-3,-1.1768132E-1,-2.0269664E-2,-2.933132E-2,3.0280957E-2,2.8532738E-2,1.2780075E-1],"split_indices":[4,4,10,0,14,8,10,20,16,7,10,8,0,0,0,0,0,0,0,0,0,0,0],"split_type":[0,0,0,0,0,0,0,0,0,0,0,0,0,0,0,0,0,0,0,0,0,0,0],"sum_hessian":[4.6E2,1.07E2,3.53E2,2E0,1.05E2,2.86E2,6.7E1,4.7E1,5.8E1,1.08E2,1.78E2,6.2E1,5E0,3E1,1.7E1,1.3E1,4.5E1,7E0,1.01E2,3.3E1,1.45E2,5.5E1,7E0],"tree_param":{"num_deleted":"0","num_feature":"27","num_nodes":"23","size_leaf_vector":"1"}},{"base_weights":[-7.852318E-4,-2.0844091E-1,1.7997088E-1,-5.016609E-1,-5.099455E-2,1.15710445E-1,1.1661514E0,-2.0453694E-1,-4.313487E-1,-3.6616626E-1,8.188751E-2,4.9793772E-2,9.0028214E-1,1.8934377E-1,1.3018646E0,-6.380278E-2,-1.3075034E-2,-4.4678535E-2,8.308106E-2,-2.1448918E-2,2.5935462E-2,-7.160563E-2,1.0236573E-2,3.3450447E-2,1.0921579E-1,-5.934525E-3,3.433609E-2,1.5690592E-1,8.486895E-2],"categories":[],"categories_nodes":[],"categories_segments":[],"categories_sizes":[],"default_left":[0,0,0,0,0,0,0,0,0,0,0,0,0,0,0,0,0,0,0,0,0,0,0,0,0,0,0,0,0],"id":49,"left_children":[1,3,5,7,9,11,13,-1,15,17,19,21,23,25,27,-1,-1,-1,-1,-1,-1,-1,-1,-1,-1,-1,-1,-1,-1],"loss_changes":[1.7341162E1,9.900199E0,1.55180435E1,7.258341E0,5.9351587E0,1.2005081E1,1.7419853E0,0E0,4.4518785E0,4.42416E0,5.3153396E0,8.769942E0,1.5887318E0,1.3528395E-1,2.424736E-1,0E0,0E0,0E0,0E0,0E0,0E0,0E0,0E0,0E0,0E0,0E0,0E0,0E0,0E0],"parents":[2147483647,0,0,1,1,2,2,3,3,4,4,5,5,6,6,8,8,9,9,10,10,11,11,12,12,13,13,14,14],"right_children":[2,4,6,8,10,12,14,-1,16,18,20,22,24,26,28,-1,-1,-1,-1,-1,-1,-1,-1,-1,-1,-1,-1,-1,-1],"split_conditions":[-8.5580796E-2,-2.4057302E-1,1.4934719E0,-2.1154246E0,-7.5449955E-1,2.0165493E0,-6.2848353E-1,-2.0453694E-1,4.628146E-1,2.4720893E0,-8.499918E-1,-1.0568565E0,2.7020237E-1,-5.2060825E-1,5.006245E-1,-6.380278E-2,-1.3075034E-2,-4.4678535E-2,8.308106E-2,-2.1448918E-2,2.5935462E-2,-7.160563E-2,1.0236573E-2,3.3450447E-2,1.0921579E-1,-5.934525E-3,3.433609E-2,1.5690592E-1,8.486895E-2],"split_indices":[4,10,10,6,8,4,20,0,8,19,4,7,5,1,25,0,0,0,0,0,0,0,0,0,0,0,0,0,0],"split_type":[0,0,0,0,0,0,0,0,0,0,0,0,0,0,0,0,0,0,0,0,0,0,0,0,0,0,0,0,0],"sum_hessian":[4.6E2,2.14E2,2.46E2,7.4E1,1.4E2,2.32E2,1.4E1,2E0,7.2E1,4.1E1,9.9E1,2.15E2,1.7E1,2E0,1.2E1,4.2E1,3E1,3.9E1,2E0,3.7E1,6.2E1,1.3E1,2.02E2,5E0,1.2E1,1E0,1E0,6E0,6E0],"tree_param":{"num_deleted":"0","num_feature":"27","num_nodes":"29","size_leaf_vector":"1"}},{"base_weights":[-4.6239758E-4,-6.9580495E-2,4.716572E-1,-9.8786247E-1,-2.6578795E-2,3.493573E-1,1.3302623E-1,-1.1997421E0,5.365181E-2,-1.3114728E-1,2.2721188E-1,4.30132E-2,5.6537527E-1,-1.4257945E-1,-4.6247866E-2,-1.5254593E-2,1.7323304E-2,-8.403188E-2,-8.972913E-3,1.5519373E-2,1.0421778E-1,-5.5397492E-2,1.9785149E-2,3.5205618E-2,1.1346608E-1],"categories":[],"categories_nodes":[],"categories_segments":[],"categories_sizes":[],"default_left":[0,0,0,0,0,0,0,0,0,0,0,0,0,0,0,0,0,0,0,0,0,0,0,0,0],"id":50,"left_children":[1,3,5,7,9,11,-1,13,15,17,19,21,23,-1,-1,-1,-1,-1,-1,-1,-1,-1,-1,-1,-1],"loss_changes":[1.5076174E1,1.588728E1,5.730694E0,4.0365314E0,1.0273662E1,3.4829998E0,0E0,1.8405037E0,1.250555E-1,7.972686E0,6.4704943E0,2.2356467E0,3.36516E0,0E0,0E0,0E0,0E0,0E0,0E0,0E0,0E0,0E0,0E0,0E0,0E0],"parents":[2147483647,0,0,1,1,2,2,3,3,4,4,5,5,7,7,8,8,9,9,10,10,11,11,12,12],"right_children":[2,4,6,8,10,12,-1,14,16,18,20,22,24,-1,-1,-1,-1,-1,-1,-1,-1,-1,-1,-1,-1],"split_conditions":[1.2667685E0,-1.3440561E0,2.2211573E0,1.0610358E0,4.8772746E-1,-5.2524483E-1,1.3302623E-1,6.212291E-1,-3.8734183E-1,-1.5732175E0,1.4934719E0,5.9807175E-1,1.0433433E0,-1.4257945E-1,-4.6247866E-2,-1.5254593E-2,1.7323304E-2,-8.403188E-2,-8.972913E-3,1.5519373E-2,1.0421778E-1,-5.5397492E-2,1.9785149E-2,3.5205618E-2,1.1346608E-1],"split_indices":[7,10,8,4,4,11,0,13,1,7,10,8,17,0,0,0,0,0,0,0,0,0,0,0,0],"split_type":[0,0,0,0,0,0,0,0,0,0,0,0,0,0,0,0,0,0,0,0,0,0,0,0,0],"sum_hessian":[4.6E2,4.02E2,5.8E1,1.7E1,3.85E2,5.2E1,6E0,1.4E1,3E0,2.73E2,1.12E2,2.2E1,3E1,1E1,4E0,1E0,2E0,1.4E1,2.59E2,1.04E2,8E0,4E0,1.8E1,2.3E1,7E0],"tree_param":{"num_deleted":"0","num_feature":"27","num_nodes":"25","size_leaf_vector":"1"}},{"base_weights":[-2.2947762E-4,-7.0628756E-1,4.0163387E-2,-2.1613656E-1,-5.556024E-1,-9.0245897E-4,6.637893E-1,-6.240596E-1,5.0945666E-2,-1.7771748E-1,1.5954497E-1,1.20177135E-1,8.133843E-1,-8.484863E-2,-2.4745636E-2,-3.379743E-2,9.105693E-3,1.15273595E-2,9.741232E-2,-1.5679475E-2,5.4173786E-2,3.460121E-2,9.378123E-2],"categories":[],"categories_nodes":[],"categories_segments":[],"categories_sizes":[],"default_left":[0,0,0,0,0,0,0,0,0,0,0,0,0,0,0,0,0,0,0,0,0,0,0],"id":51,"left_children":[1,3,5,-1,7,9,11,13,-1,15,17,19,21,-1,-1,-1,-1,-1,-1,-1,-1,-1,-1],"loss_changes":[1.3175952E1,4.2806053E0,1.1192048E1,0E0,2.0677953E0,1.1688226E1,2.0979347E0,1.7339916E0,0E0,8.473069E0,7.677211E0,9.0226483E-1,8.967447E-1,0E0,0E0,0E0,0E0,0E0,0E0,0E0,0E0,0E0,0E0],"parents":[2147483647,0,0,1,1,2,2,4,4,5,5,6,6,7,7,9,9,10,10,11,11,12,12],"right_children":[2,4,6,-1,8,10,12,14,-1,16,18,20,22,-1,-1,-1,-1,-1,-1,-1,-1,-1,-1],"split_conditions":[-1.4233E0,-2.187711E0,1.7071956E0,-2.1613656E-1,1.2107986E0,-8.2932584E-2,-1.176843E0,-4.0091667E-3,5.0945666E-2,4.628146E-1,2.2816741E0,1.4330195E0,-4.04458E-1,-8.484863E-2,-2.4745636E-2,-3.379743E-2,9.105693E-3,1.15273595E-2,9.741232E-2,-1.5679475E-2,5.4173786E-2,3.460121E-2,9.378123E-2],"split_indices":[4,4,16,0,5,10,11,2,0,8,10,9,12,0,0,0,0,0,0,0,0,0,0],"split_type":[0,0,0,0,0,0,0,0,0,0,0,0,0,0,0,0,0,0,0,0,0,0,0],"sum_hessian":[4.6E2,2.4E1,4.36E2,1E0,2.3E1,4.1E2,2.6E1,2.2E1,1E0,1.95E2,2.15E2,6E0,2E1,1.3E1,9E0,1.22E2,7.3E1,2.05E2,1E1,4E0,2E0,5E0,1.5E1],"tree_param":{"num_deleted":"0","num_feature":"27","num_nodes":"23","size_leaf_vector":"1"}},{"base_weights":[-2.5807545E-4,-5.2463305E-1,4.9446322E-2,-2.053299E-1,-4.3278778E-1,1.7260995E-2,7.312056E-1,-5.4477805E-1,1.5699331E-1,-6.311886E-1,5.0901853E-2,3.543889E-1,1.3265501E0,-6.3211724E-2,2.4645997E-2,-3.8326774E-2,4.4975128E-2,-7.836242E-2,-1.7156983E-3,-2.612939E-2,1.0934197E-2,5.019802E-2,-3.0490875E-2,2.8918838E-2,1.4512457E-1],"categories":[],"categories_nodes":[],"categories_segments":[],"categories_sizes":[],"default_left":[0,0,0,0,0,0,0,0,0,0,0,0,0,0,0,0,0,0,0,0,0,0,0,0,0],"id":52,"left_children":[1,3,5,-1,7,9,11,13,15,17,19,21,23,-1,-1,-1,-1,-1,-1,-1,-1,-1,-1,-1,-1],"loss_changes":[1.2041326E1,4.7273865E0,9.247176E0,0E0,2.6614666E0,8.845146E0,3.792264E0,2.4362926E0,1.2795352E0,1.8585606E0,7.0528E0,1.4180437E0,4.8579788E-1,0E0,0E0,0E0,0E0,0E0,0E0,0E0,0E0,0E0,0E0,0E0,0E0],"parents":[2147483647,0,0,1,1,2,2,4,4,5,5,6,6,7,7,8,8,9,9,10,10,11,11,12,12],"right_children":[2,4,6,-1,8,10,12,14,16,18,20,22,24,-1,-1,-1,-1,-1,-1,-1,-1,-1,-1,-1,-1],"split_conditions":[-1.3009738E0,-2.187711E0,2.04131E0,-2.053299E-1,1.2090449E0,-1.3440561E0,8.07686E-1,1.9898026E0,-2.6728126E-1,5.947669E-1,-8.499918E-1,-3.8734183E-1,-4.1828053E-3,-6.3211724E-2,2.4645997E-2,-3.8326774E-2,4.4975128E-2,-7.836242E-2,-1.7156983E-3,-2.612939E-2,1.0934197E-2,5.019802E-2,-3.0490875E-2,2.8918838E-2,1.4512457E-1],"split_indices":[9,4,7,0,18,10,5,20,5,9,4,1,2,0,0,0,0,0,0,0,0,0,0,0,0],"split_type":[0,0,0,0,0,0,0,0,0,0,0,0,0,0,0,0,0,0,0,0,0,0,0,0,0],"sum_hessian":[4.6E2,3.9E1,4.21E2,1E0,3.8E1,4.03E2,1.8E1,3.2E1,6E0,1.9E1,3.84E2,